svm_type c_svc
kernel_type linear
nr_class 2
total_sv 192
rho 23.1017
label 1 0
nr_sv 95 97
SV
1 1:1 2:1 3:900 4:466 5:0 6:0 7:0.85 8:0.7225 9:0.88333333 10:0 11:0.94555556 
1 1:1 2:1 3:1680 4:0 5:0 6:0 7:0 8:0 9:0.89333333 10:0 11:0.94666667 
1 1:1 2:1 3:5040 4:0 5:1 6:0 7:0 8:0 9:0.96111111 10:0 11:0.96111111 
1 1:1 2:1 3:3600 4:293 5:0 6:0 7:0 8:0 9:0.94166667 10:0 11:0.94166667 
1 1:1 2:1 3:4560 4:0 5:0 6:0.55555556 7:0.5 8:0.25 9:0.92222222 10:0 11:0.94555556 
1 1:1 2:1 3:960 4:1 5:0 6:0 7:0 8:0 9:0.92 10:0 11:0.92 
1 1:1 2:1 3:7200 4:307 5:0 6:0 7:0 8:0 9:0.94166667 10:0 11:0.94166667 
1 1:1 2:1 3:8580 4:280 5:0 6:0 7:0.66666667 8:0.44444444 9:0.92 10:0 11:0.944 
1 1:1 2:1 3:3180 4:0 5:0 6:0.52777778 7:0 8:0 9:0.90666667 10:0 11:0.90666667 
1 1:1 2:1 3:14400 4:363 5:0 6:0.58333333 7:0 8:0 9:0.96666667 10:0 11:0.96666667 
1 1:1 2:1 3:3600 4:391 5:0 6:0 7:0 8:0 9:0.85 10:0 11:0.895 
1 1:1 2:1 3:4080 4:395 5:0 6:0.55555556 7:0 8:0 9:0.89333333 10:0 11:0.89333333 
1 1:0 2:1 3:0 4:6993 5:1 6:0 7:0 8:0 9:0.96666667 10:0 11:0.96666667 
1 1:1 2:1 3:4980 4:0 5:0 6:0.55555556 7:0.5 8:0.25 9:0.85 10:0 11:0.895 
1 1:1 2:1 3:13440 4:200 5:0 6:0.58333333 7:0 8:0 9:0.94166667 10:0 11:0.94166667 
1 1:1 2:1 3:13680 4:150 5:0 6:0 7:0 8:0 9:0.94166667 10:0 11:0.94166667 
1 1:1 2:1 3:3600 4:334 5:0 6:0 7:0 8:0 9:0.83333333 10:0 11:0.88333333 
1 1:1 2:1 3:3600 4:178 5:0 6:0.61111111 7:0.66666667 8:0.44444444 9:0.83333333 10:0 11:0.88333333 
1 1:1 2:1 3:3600 4:251 5:0 6:0 7:0 8:0 9:0.88 10:0 11:0.88 
1 1:1 2:1 3:14400 4:433 5:0 6:0 7:0 8:0 9:0.94 10:0 11:0.94 
1 1:0 2:1 3:60 4:7000 5:0 6:0 7:0 8:0 9:0.94666667 10:0 11:0.94666667 
0.6415827518729905 1:1 2:1 3:540 4:0 5:1 6:0.58333333 7:0 8:0 9:0.78 10:0 11:0.8432 
1 1:1 2:1 3:0 4:45 5:1052 6:0.75389748 7:0.85535714 8:0.73163584 9:0.92 10:2 11:0.92 
1 1:1 2:1 3:0 4:44 5:1030 6:0.89207161 7:0.82336182 8:0.67792469 9:0.88333333 10:2 11:0.91833333 
1 1:1 2:1 3:13560 4:219 5:0 6:0 7:0 8:0 9:0.86666667 10:0 11:0.90666667 
1 1:1 2:1 3:14400 4:0 5:0 6:0.61111111 7:0.58333333 8:0.34027778 9:0.90666667 10:0 11:0.90666667 
1 1:1 2:1 3:360 4:0 5:1 6:0 7:0 8:0 9:0.8 10:0 11:0.83 
1 1:1 2:1 3:0 4:0 5:0 6:0.91253197 7:0.61587302 8:0.37929957 9:0.66666667 10:2 11:0.83 
1 1:1 2:1 3:17880 4:185 5:0 6:0 7:0 8:0 9:0.92222222 10:0 11:0.92222222 
1 1:1 2:0 3:60 4:3 5:0 6:0 7:0.58333333 8:0.34027778 9:0.88 10:1 11:0.916 
1 1:1 2:1 3:0 4:322 5:0 6:0 7:0 8:0 9:0.73333333 10:0 11:0.81333333 
1 1:1 2:1 3:60 4:2 5:0 6:0.87647059 7:0.69444444 8:0.48225309 9:0.66666667 10:2 11:0.81333333 
1 1:1 2:1 3:0 4:0 5:0 6:0.55555556 7:0 8:0 9:0.8 10:0 11:0.8 
1 1:1 2:1 3:0 4:364 5:0 6:0 7:0 8:0 9:0.79733333 10:0 11:0.79733333 
0.2381866589975682 1:1 2:1 3:360 4:180 5:0 6:0 7:0.5 8:0.25 9:0.76 10:0 11:0.796 
1 1:1 2:1 3:120 4:0 5:1170 6:0.94117647 7:0.93416667 8:0.87266736 9:0.86666667 10:2 11:0.86666667 
1 1:0 2:1 3:1320 4:7000 5:0 6:0 7:0 8:0 9:0.88333333 10:0 11:0.88333333 
1 1:1 2:1 3:0 4:0 5:0 6:0 7:0.58333333 8:0.34027778 9:0.72222222 10:0 11:0.78055556 
1 1:1 2:1 3:14400 4:348 5:0 6:0.58333333 7:0 8:0 9:0.78666667 10:0 11:0.85066667 
1 1:1 2:1 3:3720 4:0 5:0 6:0 7:0 8:0 9:0.76 10:0 11:0.796 
1 1:1 2:1 3:60 4:4 5:0 6:0 7:0 8:0 9:0.77777778 10:0 11:0.77777778 
1 1:1 2:1 3:0 4:0 5:0 6:0 7:0 8:0 9:0.77777778 10:0 11:0.77777778 
1 1:1 2:1 3:25140 4:263 5:0 6:0 7:0.5 8:0.25 9:0.90666667 10:0 11:0.90666667 
1 1:1 2:1 3:60 4:1 5:0 6:0.77578858 7:0.9 8:0.81 9:0.66666667 10:2 11:0.77333333 
1 1:1 2:1 3:0 4:0 5:0 6:0 7:0 8:0 9:0.73333333 10:0 11:0.77333333 
1 1:1 2:1 3:0 4:37 5:0 6:0.79144385 7:0.81547619 8:0.66500142 9:0.66666667 10:2 11:0.77333333 
1 1:0 2:1 3:180 4:6993 5:0 6:0.66666667 7:0.5 8:0.25 9:0.85 10:0 11:0.85 
1 1:1 2:1 3:0 4:0 5:0 6:0 7:0 8:0 9:0.76 10:0 11:0.76 
1 1:1 2:1 3:60 4:0 5:0 6:0 7:0 8:0 9:0.76 10:0 11:0.76 
1 1:1 2:1 3:0 4:0 5:0 6:0.91764706 7:0.79111111 8:0.62585679 9:0.5 10:2 11:0.76 
1 1:1 2:1 3:0 4:188 5:805 6:0.37345679 7:0 8:0 9:0.88333333 10:0 11:0.88333333 
1 1:1 2:1 3:19980 4:160 5:0 6:0.61111111 7:0 8:0 9:0.84844444 10:0 11:0.84844444 
1 1:1 2:1 3:0 4:0 5:0 6:0.80891266 7:0.89411765 8:0.79944637 9:0.66666667 10:2 11:0.745 
1 1:1 2:1 3:60 4:32 5:0 6:0.83636364 7:0.76495726 8:0.58515962 9:0.66666667 10:2 11:0.745 
1 1:1 2:1 3:60 4:0 5:0 6:0.82352941 7:0.88 8:0.7744 9:0.66666667 10:2 11:0.745 
1 1:1 2:1 3:120 4:0 5:0 6:0.61111111 7:0 8:0 9:0.66666667 10:0 11:0.745 
1 1:1 2:1 3:0 4:0 5:0 6:0.78823529 7:0.73737374 8:0.54372003 9:0.66666667 10:2 11:0.745 
1 1:1 2:1 3:0 4:313 5:0 6:0 7:0 8:0 9:0.66666667 10:0 11:0.745 
1 1:1 2:1 3:60 4:377 5:0 6:0 7:0 8:0 9:0.736 10:0 11:0.736 
1 1:1 2:1 3:60 4:38 5:0 6:0.83315508 7:0.66666667 8:0.44444444 9:0.73333333 10:2 11:0.73333333 
1 1:1 2:1 3:60 4:313 5:0 6:0.61111111 7:0 8:0 9:0.73333333 10:0 11:0.73333333 
1 1:1 2:1 3:0 4:221 5:0 6:0 7:0 8:0 9:0.63333333 10:0 11:0.72333333 
1 1:1 2:1 3:0 4:0 5:0 6:0.89828431 7:0.83991597 8:0.70545883 9:0.72222222 10:2 11:0.72222222 
1 1:1 2:1 3:0 4:0 5:0 6:0 7:0 8:0 9:0.66666667 10:0 11:0.71666667 
1 1:1 2:1 3:0 4:0 5:0 6:0.77578858 7:0.89285714 8:0.79719388 9:0.63950617 10:2 11:0.69432099 
1 1:1 2:1 3:0 4:48 5:0 6:0.84848485 7:0.88166667 8:0.77733611 9:0.64 10:2 11:0.688 
1 1:1 2:1 3:240 4:0 5:9 6:0.38888889 7:0.58333333 8:0.34027778 9:0.73666667 10:0 11:0.77066667 
1 1:1 2:1 3:0 4:0 5:0 6:0.91764706 7:0.65384615 8:0.42751479 9:0.66666667 10:2 11:0.66666667 
1 1:1 2:1 3:0 4:0 5:0 6:0.85882353 7:0.83333333 8:0.69444444 9:0.66666667 10:2 11:0.66666667 
1 1:1 2:1 3:0 4:0 5:0 6:0.70845712 7:0.84126984 8:0.70773495 9:0.66666667 10:2 11:0.66666667 
1 1:1 2:1 3:0 4:0 5:0 6:0.82352941 7:0.9475 8:0.89775625 9:0.66666667 10:2 11:0.66666667 
1 1:1 2:1 3:0 4:259 5:0 6:0 7:0.58333333 8:0.34027778 9:0.66666667 10:0 11:0.66666667 
1 1:1 2:1 3:0 4:1 5:0 6:0.78502674 7:0.915 8:0.837225 9:0.66666667 10:2 11:0.66666667 
1 1:1 2:1 3:0 4:0 5:0 6:0 7:0.66666667 8:0.44444444 9:0.66666667 10:0 11:0.66666667 
1 1:1 2:1 3:60 4:40 5:0 6:0.89090909 7:1 8:1 9:0.66666667 10:2 11:0.66666667 
1 1:1 2:1 3:0 4:78 5:0 6:0 7:0.58333333 8:0.34027778 9:0.66666667 10:0 11:0.66666667 
1 1:1 2:1 3:0 4:0 5:183 6:0.82174688 7:0.73611111 8:0.54185957 9:0.78333333 10:2 11:0.78333333 
1 1:1 2:1 3:60 4:0 5:0 6:0.79144385 7:0.88809524 8:0.78871315 9:0.5 10:2 11:0.65 
1 1:1 2:1 3:0 4:0 5:0 6:0.8627451 7:0.95 8:0.9025 9:0.6 10:2 11:0.64 
1 1:1 2:1 3:0 4:0 5:0 6:0.73083779 7:0.87142857 8:0.75938776 9:0.63333333 10:2 11:0.63333333 
1 1:1 2:1 3:0 4:5 5:0 6:0.80891266 7:0.83012821 8:0.68911284 9:0.63333333 10:2 11:0.63333333 
1 1:1 2:1 3:120 4:432 5:0 6:0 7:0 8:0 9:0.48333333 10:0 11:0.61833333 
1 1:1 2:1 3:47460 4:318 5:0 6:0 7:0.5 8:0.25 9:0.85 10:0 11:0.85 
1 1:1 2:1 3:120 4:41 5:1106 6:0.89837429 7:0.66155556 8:0.52850592 9:0.86666667 10:2 11:0.90666667 
1 1:1 2:1 3:0 4:50 5:10 6:0.77508651 7:0.8974359 8:0.80539119 9:0.66666667 10:2 11:0.76666667 
1 1:1 2:1 3:60 4:53 5:0 6:0.72727273 7:0.81868132 8:0.6702391 9:0.48333333 10:2 11:0.57333333 
1 1:1 2:1 3:11880 4:7 5:255 6:0.6019085 7:0.85714286 8:0.73469388 9:0.69135802 10:2 11:0.71728395 
1 1:1 2:1 3:120 4:42 5:112 6:0.78362168 7:0.73296703 8:0.53724067 9:0.66666667 10:2 11:0.66666667 
1 1:1 2:1 3:60 4:365 5:0 6:0.66666667 7:0 8:0 9:0.5 10:0 11:0.55 
1 1:1 2:1 3:360 4:4 5:0 6:0.78502674 7:0.83567796 8:0.7891108 9:0.88333333 10:2 11:0.88333333 
1 1:1 2:1 3:0 4:181 5:934 6:0.52777778 7:0.66666667 8:0.44444444 9:0.86666667 10:0 11:0.86666667 
1 1:1 2:1 3:120 4:0 5:0 6:0.61111111 7:0.5 8:0.25 9:0.48333333 10:0 11:0.52833333 
1 1:0 2:1 3:0 4:7000 5:0 6:0.79144385 7:0.82857143 8:0.68653061 9:0.85 10:2 11:0.85 
1 1:1 2:1 3:0 4:1 5:20 6:0.84152249 7:0.86875 8:0.75472656 9:0.73333333 10:2 11:0.73333333 
1 1:1 2:1 3:0 4:245 5:0 6:0 7:0 8:0 9:0.48333333 10:0 11:0.48333333 
-1 1:1 2:1 3:0 4:280 5:0 6:0 7:0.58333333 8:0.34027778 9:0.68888889 10:0 11:0.79377778 
-1 1:1 2:1 3:0 4:255 5:0 6:0 7:0 8:0 9:0.73333333 10:0 11:0.77333333 
-1 1:1 2:1 3:0 4:279 5:1 6:0.38888889 7:0 8:0 9:0.66666667 10:0 11:0.76 
-1 1:1 2:1 3:60 4:400 5:0 6:0 7:0 8:0 9:0.73 10:0 11:0.73 
-1 1:1 2:1 3:120 4:0 5:1 6:1 7:0 8:0 9:0.66666667 10:0 11:0.71666667 
-1 1:1 2:1 3:60 4:225 5:0 6:0.61111111 7:0.66666667 8:0.44444444 9:0.66666667 10:0 11:0.7 
-1 1:1 2:1 3:60 4:393 5:0 6:0.55555556 7:0 8:0 9:0.69444444 10:0 11:0.69444444 
-1 1:1 2:1 3:0 4:372 5:5 6:0.50246914 7:0 8:0 9:0.69444444 10:0 11:0.69444444 
-1 1:1 2:1 3:60 4:0 5:0 6:0.55555556 7:0.58333333 8:0.34027778 9:0.69444444 10:0 11:0.69444444 
-1 1:1 2:1 3:60 4:304 5:0 6:0.77777778 7:0.66666667 8:0.44444444 9:0.69444444 10:0 11:0.69444444 
-1 1:1 2:1 3:60 4:327 5:0 6:0 7:0 8:0 9:0.69444444 10:0 11:0.69444444 
-1 1:1 2:1 3:0 4:0 5:0 6:0.55555556 7:0 8:0 9:0.69444444 10:0 11:0.69444444 
-1 1:1 2:1 3:0 4:0 5:1 6:0 7:0.58333333 8:0.34027778 9:0.63333333 10:0 11:0.67833333 
-1 1:1 2:1 3:60 4:0 5:0 6:0.55555556 7:0 8:0 9:0.69444444 10:0 11:0.66666667 
-1 1:1 2:1 3:0 4:0 5:0 6:0 7:0 8:0 9:0.69444444 10:0 11:0.66666667 
-1 1:1 2:1 3:0 4:0 5:0 6:0 7:0.83333333 8:0.69444444 9:0.66666667 10:0 11:0.66666667 
-1 1:1 2:1 3:0 4:0 5:1 6:0 7:0.5 8:0.25 9:0.69444444 10:0 11:0.66666667 
-1 1:1 2:1 3:60 4:1 5:0 6:0.83957219 7:0.89333333 8:0.79804444 9:0.66666667 10:2 11:0.66666667 
-1 1:1 2:1 3:0 4:0 5:0 6:0 7:0 8:0 9:0.69444444 10:0 11:0.66666667 
-1 1:1 2:1 3:60 4:0 5:0 6:0 7:0.58333333 8:0.34027778 9:0.69444444 10:0 11:0.66666667 
-1 1:1 2:1 3:0 4:0 5:0 6:0.8627451 7:0.71733822 8:0.51457412 9:0.61111111 10:2 11:0.65277778 
-1 1:1 2:1 3:0 4:0 5:0 6:0 7:0.58333333 8:0.34027778 9:0.64755556 10:0 11:0.64755556 
-1 1:1 2:1 3:60 4:54 5:0 6:0.80588235 7:0.8 8:0.64 9:0.63333333 10:2 11:0.63333333 
-1 1:1 2:1 3:0 4:0 5:0 6:0.84313725 7:0.79487179 8:0.63182117 9:0.63333333 10:2 11:0.63333333 
-1 1:1 2:1 3:120 4:0 5:0 6:0.92941176 7:0.85 8:0.7225 9:0.63333333 10:2 11:0.63333333 
-1 1:0 2:1 3:60 4:7000 5:6 6:0 7:0 8:0 9:0.69444444 10:0 11:0.69444444 
-1 1:1 2:1 3:0 4:0 5:0 6:0.52777778 7:0.5 8:0.25 9:0.61111111 10:0 11:0.61111111 
-1 1:1 2:1 3:420 4:127 5:0 6:0 7:0.5 8:0.25 9:0.85 10:0 11:0.895 
-1 1:1 2:1 3:60 4:350 5:1 6:0.50246914 7:0.5 8:0.25 9:0.69444444 10:0 11:0.66666667 
-1 1:1 2:1 3:60 4:48 5:10 6:0.85882353 7:0.72698413 8:0.52850592 9:0.66666667 10:2 11:0.66666667 
-1 1:1 2:1 3:120 4:346 5:0 6:0.58333333 7:0 8:0 9:0.90666667 10:0 11:0.90666667 
-1 1:1 2:1 3:300 4:1 5:0 6:0.92941176 7:0.70933333 8:0.71308642 9:0.86666667 10:2 11:0.90666667 
-1 1:1 2:1 3:0 4:0 5:70 6:0.67023173 7:0.79487179 8:0.63182117 9:0.89333333 10:2 11:0.92533333 
-1 1:1 2:1 3:0 4:314 5:0 6:0.61111111 7:0.58333333 8:0.34027778 9:0.93333333 10:0 11:0.95333333 
-1 1:0 2:1 3:120 4:6968 5:4 6:0.90076726 7:0.85882353 8:0.73757785 9:0.6 10:2 11:0.6 
-1 1:1 2:1 3:300 4:0 5:0 6:0.8627451 7:0.72204082 8:0.68653061 9:0.94166667 10:2 11:0.94166667 
-1 1:1 2:1 3:60 4:0 5:10 6:0.94200692 7:0.73449074 8:0.62673611 9:0.89333333 10:2 11:0.89333333 
-1 1:1 2:1 3:120 4:0 5:0 6:0.85882353 7:0.83547009 8:0.69801026 9:0.88333333 10:2 11:0.91833333 
-1 1:1 2:1 3:300 4:0 5:0 6:0.92727273 7:0.80714286 8:0.65147959 9:0.63333333 10:2 11:0.67833333 
-1 1:1 2:1 3:0 4:0 5:912 6:0.85716446 7:0.65058751 8:0.72913856 9:0.84833333 10:2 11:0.84833333 
-1 1:1 2:1 3:0 4:43 5:0 6:0.69803922 7:0.86134454 8:0.74191441 9:0.77777778 10:2 11:0.84444444 
-1 1:1 2:1 3:0 4:0 5:0 6:0.88900256 7:0.7060636 8:0.73757785 9:0.77777778 10:2 11:0.84444444 
-1 1:1 2:1 3:0 4:0 5:0 6:0.6973572 7:0.62177812 8:0.5719935 9:0.77777778 10:2 11:0.84444444 
-1 1:1 2:1 3:120 4:39 5:2 6:0.92173913 7:0.80555556 8:0.6387486 9:0.66666667 10:2 11:0.83 
-1 1:1 2:1 3:60 4:0 5:6 6:0 7:0.58333333 8:0.34027778 9:0.93333333 10:0 11:0.93333333 
-1 1:1 2:1 3:300 4:343 5:34 6:0 7:0 8:0 9:0.78333333 10:0 11:0.82833333 
-1 1:1 2:1 3:60 4:200 5:0 6:0.8 7:0.25 8:0.25 9:0.82222222 10:0 11:0.82222222 
-1 1:1 2:1 3:0 4:0 5:0 6:0.89411765 7:0.61587302 8:0.37929957 9:0.82222222 10:2 11:0.82222222 
-1 1:1 2:1 3:0 4:1 5:10 6:0.90510397 7:0.85303188 8:0.88164783 9:0.89333333 10:2 11:0.92533333 
-1 1:1 2:1 3:0 4:31 5:0 6:0.81500426 7:0.58461538 8:0.44444444 9:0.805 10:2 11:0.805 
-1 1:1 2:1 3:0 4:0 5:125 6:0.69048815 7:0.72204082 8:0.68653061 9:0.925 10:2 11:0.925 
-1 1:1 2:1 3:120 4:0 5:204 6:0 7:0 8:0 9:0.775 10:0 11:0.8125 
-1 1:1 2:1 3:360 4:494 5:5 6:0.40740741 7:0 8:0 9:0.63333333 10:0 11:0.67833333 
-1 1:1 2:1 3:0 4:0 5:10 6:0.90409207 7:0.66106443 8:0.43700618 9:0.77777778 10:2 11:0.84444444 
-1 1:1 2:1 3:60 4:0 5:0 6:0.52777778 7:0.25 8:0.25 9:0.69444444 10:0 11:0.69444444 
-1 1:1 2:1 3:60 4:35 5:2 6:0.87354164 7:0.70970899 8:0.58656148 9:0.66666667 10:2 11:0.66666667 
-1 1:1 2:1 3:180 4:5 5:103 6:0.7785124 7:0.75400895 8:0.69004227 9:0.66666667 10:2 11:0.77333333 
-1 1:1 2:1 3:0 4:42 5:20 6:0.81384516 7:0.59191684 8:0.6411727 9:0.96 10:2 11:0.96 
-0.9030210639036662 1:0 2:1 3:1020 4:7035 5:0 6:1 7:0.58333333 8:0.34027778 9:0.56948148 10:0 11:0.56948148 
-1 1:1 2:1 3:2880 4:36 5:144 6:0.30864198 7:0.58333333 8:0.34027778 9:0.55111111 10:0 11:0.55111111 
-0.6038429372915833 1:1 2:1 3:7200 4:35 5:47 6:0.86057365 7:0.71825397 8:0.51588876 9:0.60163889 10:2 11:0.60163889 
-0.1274245237238515 1:0 2:1 3:1620 4:7000 5:10 6:0 7:0 8:0 9:0.6205 10:0 11:0.6205 
-0.7769009406887554 1:1 2:0 3:14340 4:247 5:549 6:0 7:0.75111111 8:0.75111111 9:0.31481481 10:1 11:0.3882716 
-1 1:1 2:1 3:60 4:0 5:8 6:0 7:0 8:0 9:0.85 10:0 11:0.895 
-1 1:0 2:1 3:420 4:7000 5:6 6:0 7:0 8:0 9:0.55111111 10:0 11:0.63377778 
-1 1:1 2:1 3:5880 4:22 5:172 6:0.64876586 7:0.70659904 8:0.53028271 9:0.29 10:2 11:0.33813333 
-1 1:1 2:1 3:2700 4:300 5:64 6:0 7:0 8:0 9:0.55555556 10:0 11:0.58888889 
-1 1:1 2:1 3:24660 4:2 5:502 6:0 7:0.58333333 8:0.34027778 9:0.35444444 10:0 11:0.37377778 
-1 1:1 2:1 3:12000 4:71 5:119 6:0 7:0 8:0 9:0.40740741 10:0 11:0.45527778 
-1 1:1 2:0 3:11820 4:261 5:254 6:0 7:0.29166667 8:0.34027778 9:0.44444444 10:1 11:0.44444444 
-1 1:1 2:0 3:23340 4:48 5:12 6:0 7:0 8:0 9:0.31111111 10:1 11:0.33444444 
-1 1:1 2:1 3:3060 4:60 5:270 6:0.33950617 7:0 8:0 9:0.406 10:0 11:0.4816 
-1 1:1 2:1 3:3120 4:316 5:88 6:0 7:0.58333333 8:0.34027778 9:0.32222222 10:0 11:0.38222222 
-1 1:1 2:1 3:420 4:45 5:112 6:0.72961309 7:0.56641975 8:0.4745679 9:0.66666667 10:2 11:0.745 
-1 1:1 2:0 3:14940 4:40 5:98 6:0 7:0.58333333 8:0.34027778 9:0.33333333 10:1 11:0.36666667 
-1 1:1 2:0 3:15540 4:248 5:450 6:0 7:0 8:0 9:0.44444444 10:1 11:0.49666667 
-1 1:1 2:1 3:3000 4:300 5:142 6:0 7:0.58333333 8:0.34027778 9:0.28851852 10:0 11:0.38327704 
-1 1:0 2:1 3:540 4:7046 5:8 6:0 7:0 8:0 9:0.58888889 10:0 11:0.63305556 
-1 1:1 2:0 3:13620 4:280 5:114 6:0.45679012 7:0.4212963 8:0.34027778 9:0.29 10:1 11:0.371 
-1 1:1 2:1 3:3300 4:4 5:6 6:0 7:0 8:0 9:0.25509259 10:0 11:0.30966204 
-0.1286994851906565 1:1 2:1 3:3240 4:436 5:400 6:0.40740741 7:0 8:0 9:0.29 10:0 11:0.30933333 
-1 1:1 2:0 3:14580 4:280 5:130 6:0.30864198 7:0.4212963 8:0.34027778 9:0.35283333 10:1 11:0.45138333 
-1 1:1 2:1 3:720 4:0 5:9 6:0 7:0 8:0 9:0.86666667 10:0 11:0.86666667 
-1 1:1 2:0 3:13020 4:168 5:386 6:0 7:0 8:0 9:0.39311111 10:1 11:0.48236444 
-1 1:1 2:1 3:3300 4:28 5:152 6:0.37345679 7:0.29166667 8:0.25 9:0.26388889 10:0 11:0.29305556 
-0.3810412580422977 1:1 2:1 3:3360 4:116 5:110 6:0 7:0.58333333 8:0.34027778 9:0.42222222 10:0 11:0.42222222 
-1 1:1 2:0 3:14220 4:40 5:34 6:0 7:0.58333333 8:0.34027778 9:0.29537037 10:1 11:0.39814815 
-1 1:1 2:1 3:11880 4:26 5:257 6:0.86380623 7:0.82357407 8:0.74630401 9:0.31666667 10:2 11:0.37308333 
-1 1:1 2:1 3:46020 4:0 5:54 6:0 7:0 8:0 9:0.29907407 10:0 11:0.3677037 
-1 1:1 2:1 3:3060 4:388 5:382 6:0 7:0.55555556 8:0.69444444 9:0.28333333 10:0 11:0.35555556 
-1 1:1 2:1 3:3180 4:284 5:214 6:0.33950617 7:0 8:0 9:0.27481481 10:0 11:0.31694815 
-0.9588392020296825 1:1 2:1 3:2940 4:29 5:22 6:0 7:0 8:0 9:0.30555556 10:0 11:0.33611111 
-1 1:1 2:1 3:60 4:0 5:9 6:0.77226814 7:0.87777778 8:0.77049383 9:0.96666667 10:2 11:0.96666667 
-1 1:1 2:1 3:3000 4:300 5:278 6:0.33950617 7:0.29166667 8:0.25 9:0.30611111 10:0 11:0.38891111 
-1 1:1 2:1 3:2580 4:0 5:12 6:0 7:0.38888889 8:0.34027778 9:0.365 10:0 11:0.4378 
-1 1:1 2:1 3:3120 4:260 5:74 6:0 7:0 8:0 9:0.5837037 10:0 11:0.5837037 
-1 1:1 2:1 3:2760 4:4 5:16 6:0 7:0.38888889 8:0.34027778 9:0.33333333 10:0 11:0.42592593 
