svm_type c_svc
kernel_type linear
nr_class 2
total_sv 256
rho 9.73084
label 1 0
nr_sv 129 127
SV
1 0:1 1:1 2:14.4 3:0.433 4:0 5:0 6:0 7:0 8:0.94 9:0 10:0.94 
0.6922610525175056 0:0 1:1 2:0.06 3:7 4:0 5:0 6:0 7:0 8:0.94666667 9:0 10:0.94666667 
1 0:1 1:1 2:0.06 3:0 4:0 5:0.61111111 6:0 7:0 8:0.77777778 9:0 10:0.84444444 
1 0:1 1:1 2:0 3:0.286 4:0 5:0 6:0 7:0 8:0.77777778 9:0 10:0.84444444 
1 0:1 1:1 2:0.06 3:0 4:0 5:0.61111111 6:0 7:0 8:0.77777778 9:0 10:0.84444444 
1 0:1 1:1 2:0 3:0 4:0 5:0.61111111 6:0 7:0 8:0.77777778 9:0 10:0.84444444 
1 0:1 1:1 2:0.06 3:0.392 4:0 5:0.8 6:0 7:0 8:0.77777778 9:0 10:0.84444444 
1 0:1 1:1 2:0 3:0 4:0 5:0 6:0 7:0 8:0.77777778 9:0 10:0.84444444 
1 0:1 1:1 2:0 3:0.28 4:0 5:0 6:0 7:0 8:0.77777778 9:0 10:0.84444444 
1 0:1 1:1 2:0.54 3:0 4:0.001 5:0.58333333 6:0 7:0 8:0.78 9:0 10:0.8432 
1 0:1 1:1 2:0 3:0.251 4:0 5:0 6:0 7:0 8:0.805 9:0 10:0.841 
1 0:1 1:1 2:0.06 3:0.398 4:0 5:0 6:0.58333333 7:0.34027778 8:0.73666667 9:0 10:0.83866667 
0.2180767825967672 0:1 1:1 2:0 3:0.045 4:1.052 5:0.75389748 6:0.85535714 7:0.73163584 8:0.92 9:2 10:0.92 
1 0:1 1:1 2:0 3:0.044 4:1.03 5:0.89207161 6:0.82336182 7:0.67792469 8:0.88333333 9:2 10:0.91833333 
1 0:1 1:1 2:13.56 3:0.219 4:0 5:0 6:0 7:0 8:0.86666667 9:0 10:0.90666667 
1 0:1 1:1 2:14.4 3:0 4:0 5:0.61111111 6:0.58333333 7:0.34027778 8:0.90666667 9:0 10:0.90666667 
1 0:1 1:1 2:0.36 3:0 4:0.001 5:0 6:0 7:0 8:0.8 9:0 10:0.83 
1 0:1 1:1 2:0.06 3:0.042 4:0 5:0.84117647 6:0.79111111 7:0.62585679 8:0.66666667 9:2 10:0.83 
1 0:1 1:1 2:0.06 3:0 4:0 5:0.67457181 6:0.83214286 7:0.69246173 8:0.66666667 9:2 10:0.83 
1 0:1 1:1 2:0 3:0 4:0 5:0.78056266 6:0.79111111 7:0.62585679 8:0.66666667 9:2 10:0.83 
1 0:1 1:1 2:0.06 3:0 4:0 5:0 6:0 7:0 8:0.8 9:0 10:0.83 
1 0:1 1:1 2:0 3:0 4:0 5:0.79144385 6:0.87692308 7:0.76899408 8:0.66666667 9:2 10:0.83 
1 0:1 1:1 2:0 3:0.037 4:0 5:0.84313725 6:0.61111111 7:0.37345679 8:0.66666667 9:2 10:0.83 
1 0:1 1:1 2:0 3:0 4:0 5:0.91253197 6:0.61587302 7:0.37929957 8:0.66666667 9:2 10:0.83 
1 0:1 1:1 2:0 3:0.038 4:0 5:0.88235294 6:0.71825397 7:0.51588876 8:0.66666667 9:2 10:0.83 
1 0:1 1:1 2:0.06 3:0.032 4:0 5:0.89411765 6:0.71825397 7:0.51588876 8:0.66666667 9:2 10:0.83 
1 0:1 1:1 2:17.88 3:0.185 4:0 5:0 6:0 7:0 8:0.92222222 9:0 10:0.92222222 
1 0:1 1:1 2:0 3:0.365 4:0 5:0 6:0 7:0 8:0.82666667 9:0 10:0.82666667 
1 0:1 1:1 2:0 3:0.382 4:0 5:0 6:0 7:0 8:0.80888889 9:0 10:0.82622222 
1 0:1 1:1 2:0.06 3:0.306 4:0 5:0 6:0 7:0 8:0.77777778 9:0 10:0.82444444 
1 0:1 1:0 2:0.06 3:0.003 4:0 5:0 6:0.58333333 7:0.34027778 8:0.88 9:1 10:0.916 
1 0:1 1:1 2:0.06 3:0.322 4:0 5:0 6:0 7:0 8:0.82222222 9:0 10:0.82222222 
1 0:1 1:1 2:0 3:0.212 4:0 5:0 6:0 7:0 8:0.82222222 9:0 10:0.82222222 
1 0:1 1:1 2:0 3:0.27 4:0 5:0.55555556 6:0 7:0 8:0.82222222 9:0 10:0.82222222 
1 0:1 1:1 2:0.06 3:0 4:0 5:0 6:0 7:0 8:0.82222222 9:0 10:0.82222222 
1 0:1 1:1 2:0.06 3:0 4:0 5:0 6:0 7:0 8:0.82222222 9:0 10:0.82222222 
1 0:1 1:1 2:0.06 3:0 4:0 5:0.61111111 6:0 7:0 8:0.82222222 9:0 10:0.82222222 
1 0:1 1:1 2:0.06 3:0 4:0 5:0 6:0 7:0 8:0.82222222 9:0 10:0.82222222 
0.4204756482521169 0:1 1:1 2:0 3:0 4:0 5:0 6:0 7:0 8:0.82222222 9:0 10:0.82222222 
1 0:1 1:1 2:0 3:0 4:0 5:0 6:0 7:0 8:0.82186667 9:0 10:0.82186667 
1 0:1 1:1 2:0.06 3:0.312 4:0 5:0.61111111 6:0 7:0 8:0.78666667 9:0 10:0.81866667 
1 0:1 1:1 2:0 3:0 4:0 5:0 6:0 7:0 8:0.81333333 9:0 10:0.81333333 
1 0:1 1:1 2:0 3:0.295 4:0 5:0 6:0 7:0 8:0.81333333 9:0 10:0.81333333 
0.197085382301273 0:1 1:1 2:0.06 3:0.355 4:0.001 5:0 6:0.58333333 7:0.34027778 8:0.81333333 9:0 10:0.81333333 
1 0:1 1:1 2:0 3:0.322 4:0 5:0 6:0 7:0 8:0.73333333 9:0 10:0.81333333 
1 0:1 1:1 2:0 3:0.036 4:0 5:0.89643494 6:0.6984127 7:0.4877803 8:0.66666667 9:2 10:0.81333333 
1 0:1 1:1 2:0.06 3:0.002 4:0 5:0.87647059 6:0.69444444 7:0.48225309 8:0.66666667 9:2 10:0.81333333 
1 0:1 1:1 2:0 3:0.001 4:0 5:0 6:0.58333333 7:0.34027778 8:0.80166667 9:0 10:0.80166667 
1 0:1 1:1 2:0 3:0.369 4:0 5:0.52777778 6:0 7:0 8:0.80088889 9:0 10:0.80088889 
1 0:1 1:1 2:0 3:0.074 4:0.001 5:0 6:0.58333333 7:0.34027778 8:0.8 9:0 10:0.8 
1 0:1 1:1 2:0.06 3:0 4:0 5:0 6:0 7:0 8:0.8 9:0 10:0.8 
1 0:1 1:1 2:0 3:0 4:0 5:0.55555556 6:0 7:0 8:0.8 9:0 10:0.8 
1 0:1 1:1 2:0 3:0 4:0 5:0 6:0.58333333 7:0.34027778 8:0.79804444 9:0 10:0.79804444 
1 0:1 1:1 2:0 3:0.364 4:0 5:0 6:0 7:0 8:0.79733333 9:0 10:0.79733333 
1 0:1 1:1 2:0 3:0.2 4:0 5:0.52777778 6:0 7:0 8:0.79733333 9:0 10:0.79733333 
1 0:1 1:1 2:0.06 3:0.056 4:0 5:0.87878788 6:0.7815873 7:0.61087871 8:0.76 9:2 10:0.796 
1 0:1 1:1 2:0.06 3:0.035 4:0 5:0.79820972 6:0.71825397 7:0.51588876 8:0.76 9:2 10:0.796 
1 0:1 1:1 2:0.36 3:0.18 4:0 5:0 6:0.5 7:0.25 8:0.76 9:0 10:0.796 
1 0:1 1:1 2:0.12 3:0.15 4:0 5:0 6:0.5 7:0.25 8:0.76 9:0 10:0.796 
1 0:1 1:1 2:0.12 3:0 4:1.17 5:0.94117647 6:0.93416667 7:0.87266736 8:0.86666667 9:2 10:0.86666667 
1 0:0 1:1 2:1.32 3:7 4:0 5:0 6:0 7:0 8:0.88333333 9:0 10:0.88333333 
1 0:1 1:1 2:0 3:0.197 4:0 5:0.52777778 6:0 7:0 8:0.78577778 9:0 10:0.78577778 
1 0:1 1:1 2:0 3:0 4:0 5:0 6:0.58333333 7:0.34027778 8:0.72222222 9:0 10:0.78055556 
1 0:1 1:1 2:0 3:0 4:0 5:0.83350384 6:0.84076923 7:0.7068929 8:0.72222222 9:2 10:0.78055556 
1 0:1 1:1 2:14.4 3:0.348 4:0 5:0.58333333 6:0 7:0 8:0.78666667 9:0 10:0.85066667 
1 0:1 1:1 2:0 3:0 4:0 5:0.64426877 6:0.83333333 7:0.72916667 8:0.75555556 9:2 10:0.77888889 
1 0:1 1:1 2:3.72 3:0 4:0 5:0 6:0 7:0 8:0.76 9:0 10:0.796 
1 0:1 1:1 2:0 3:0.001 4:0 5:0.53913043 6:0.73214286 7:0.53603316 8:0.77777778 9:2 10:0.77777778 
1 0:1 1:1 2:0.06 3:0 4:0 5:0.78502674 6:0.6984127 7:0.4877803 8:0.77777778 9:2 10:0.77777778 
1 0:1 1:1 2:0 3:0 4:0 5:0.73048128 6:0.76470588 7:0.58477509 8:0.77777778 9:2 10:0.77777778 
1 0:1 1:1 2:0 3:0 4:0 5:0.79820972 6:0.77857143 7:0.60617347 8:0.77777778 9:2 10:0.77777778 
1 0:1 1:1 2:0.06 3:0.004 4:0 5:0 6:0 7:0 8:0.77777778 9:0 10:0.77777778 
0.4963901311776802 0:1 1:1 2:0.06 3:0.033 4:0 5:0.7629156 6:0.85714286 7:0.73469388 8:0.77777778 9:2 10:0.77777778 
1 0:1 1:1 2:0 3:0 4:0 5:0 6:0 7:0 8:0.77777778 9:0 10:0.77777778 
1 0:1 1:1 2:0 3:0 4:0 5:0.7654809 6:0.75396825 7:0.56846813 8:0.77777778 9:2 10:0.77777778 
1 0:1 1:1 2:0 3:0.032 4:0 5:0.80121212 6:0.81538462 7:0.66485207 8:0.77777778 9:2 10:0.77777778 
1 0:1 1:1 2:25.14 3:0.263 4:0 5:0 6:0.5 7:0.25 8:0.90666667 9:0 10:0.90666667 
1 0:1 1:1 2:0.06 3:0.001 4:0 5:0.77578858 6:0.9 7:0.81 8:0.66666667 9:2 10:0.77333333 
1 0:1 1:1 2:0 3:0 4:0 5:0 6:0 7:0 8:0.73333333 9:0 10:0.77333333 
1 0:1 1:1 2:0 3:0.037 4:0 5:0.79144385 6:0.81547619 7:0.66500142 8:0.66666667 9:2 10:0.77333333 
1 0:1 1:1 2:0 3:0.255 4:0 5:0 6:0 7:0 8:0.73333333 9:0 10:0.77333333 
1 0:1 1:1 2:0 3:0 4:0 5:0.61111111 6:0.58333333 7:0.34027778 8:0.66666667 9:0 10:0.76666667 
1 0:0 1:1 2:0.18 3:6.993 4:0 5:0.66666667 6:0.5 7:0.25 8:0.85 9:0 10:0.85 
1 0:1 1:1 2:0.12 3:0 4:0 5:0.80891266 6:0.81349206 7:0.66176934 8:0.72108333 9:2 10:0.7635 
1 0:1 1:1 2:0 3:0 4:0 5:0.69803922 6:0.81547619 7:0.66500142 8:0.76 9:2 10:0.76 
1 0:1 1:1 2:0 3:0 4:0 5:0 6:0 7:0 8:0.76 9:0 10:0.76 
1 0:1 1:1 2:0.06 3:0 4:0 5:0 6:0 7:0 8:0.76 9:0 10:0.76 
1 0:1 1:1 2:0 3:0 4:0 5:0.91764706 6:0.79111111 7:0.62585679 8:0.5 9:2 10:0.76 
1 0:1 1:1 2:0 3:0.188 4:0.805 5:0.37345679 6:0 7:0 8:0.88333333 9:0 10:0.88333333 
1 0:1 1:1 2:0 3:0 4:0.5 5:0.40740741 6:0 7:0 8:0.88333333 9:0 10:0.88333333 
1 0:1 1:1 2:19.98 3:0.16 4:0 5:0.61111111 6:0 7:0 8:0.84844444 9:0 10:0.84844444 
1 0:1 1:1 2:0 3:0 4:0 5:0.80891266 6:0.89411765 7:0.79944637 8:0.66666667 9:2 10:0.745 
1 0:1 1:1 2:0.06 3:0.032 4:0 5:0.83636364 6:0.76495726 7:0.58515962 8:0.66666667 9:2 10:0.745 
1 0:1 1:1 2:0.06 3:0 4:0 5:0.82352941 6:0.88 7:0.7744 8:0.66666667 9:2 10:0.745 
1 0:1 1:1 2:0.12 3:0 4:0 5:0.61111111 6:0 7:0 8:0.66666667 9:0 10:0.745 
1 0:1 1:1 2:0 3:0 4:0 5:0.78823529 6:0.73737374 7:0.54372003 8:0.66666667 9:2 10:0.745 
1 0:1 1:1 2:0 3:0.313 4:0 5:0 6:0 7:0 8:0.66666667 9:0 10:0.745 
1 0:1 1:1 2:0.06 3:0.377 4:0 5:0 6:0 7:0 8:0.736 9:0 10:0.736 
1 0:1 1:1 2:0.06 3:0.038 4:0 5:0.83315508 6:0.66666667 7:0.44444444 8:0.73333333 9:2 10:0.73333333 
1 0:1 1:1 2:0.06 3:0.313 4:0 5:0.61111111 6:0 7:0 8:0.73333333 9:0 10:0.73333333 
1 0:1 1:1 2:0.06 3:0 4:0 5:0.55555556 6:0 7:0 8:0.77777778 9:0 10:0.84444444 
1 0:1 1:1 2:0 3:0.221 4:0 5:0 6:0 7:0 8:0.63333333 9:0 10:0.72333333 
1 0:1 1:1 2:0 3:0 4:0 5:0.89828431 6:0.83991597 7:0.70545883 8:0.72222222 9:2 10:0.72222222 
1 0:1 1:1 2:0 3:0 4:0 5:0 6:0 7:0 8:0.66666667 9:0 10:0.71666667 
1 0:1 1:1 2:0 3:0 4:0 5:0.77578858 6:0.89285714 7:0.79719388 8:0.63950617 9:2 10:0.69432099 
1 0:1 1:1 2:0 3:0.048 4:0 5:0.84848485 6:0.88166667 7:0.77733611 8:0.64 9:2 10:0.688 
1 0:1 1:1 2:0.24 3:0 4:0.009 5:0.38888889 6:0.58333333 7:0.34027778 8:0.73666667 9:0 10:0.77066667 
1 0:1 1:1 2:0 3:0 4:0 5:0.91764706 6:0.65384615 7:0.42751479 8:0.66666667 9:2 10:0.66666667 
1 0:1 1:1 2:0 3:0 4:0 5:0.85882353 6:0.83333333 7:0.69444444 8:0.66666667 9:2 10:0.66666667 
1 0:1 1:1 2:0 3:0 4:0 5:0.70845712 6:0.84126984 7:0.70773495 8:0.66666667 9:2 10:0.66666667 
1 0:1 1:1 2:0 3:0 4:0 5:0.82352941 6:0.9475 7:0.89775625 8:0.66666667 9:2 10:0.66666667 
1 0:1 1:1 2:0 3:0.259 4:0 5:0 6:0.58333333 7:0.34027778 8:0.66666667 9:0 10:0.66666667 
1 0:1 1:1 2:0 3:0.001 4:0 5:0.78502674 6:0.915 7:0.837225 8:0.66666667 9:2 10:0.66666667 
1 0:1 1:1 2:0 3:0 4:0 5:0 6:0.66666667 7:0.44444444 8:0.66666667 9:0 10:0.66666667 
1 0:1 1:1 2:0.06 3:0.04 4:0 5:0.89090909 6:1 7:1 8:0.66666667 9:2 10:0.66666667 
1 0:1 1:1 2:0 3:0.078 4:0 5:0 6:0.58333333 7:0.34027778 8:0.66666667 9:0 10:0.66666667 
1 0:1 1:1 2:0 3:0 4:0.183 5:0.82174688 6:0.73611111 7:0.54185957 8:0.78333333 9:2 10:0.78333333 
1 0:1 1:1 2:0.06 3:0 4:0 5:0.79144385 6:0.88809524 7:0.78871315 8:0.5 9:2 10:0.65 
1 0:1 1:1 2:0 3:0 4:0 5:0.8627451 6:0.95 7:0.9025 8:0.6 9:2 10:0.64 
1 0:1 1:1 2:47.46 3:0.318 4:0 5:0 6:0.5 7:0.25 8:0.85 9:0 10:0.85 
1 0:1 1:1 2:0.12 3:0.041 4:1.106 5:0.89837429 6:0.66155556 7:0.52850592 8:0.86666667 9:2 10:0.90666667 
1 0:1 1:1 2:0 3:0.05 4:0.01 5:0.77508651 6:0.8974359 7:0.80539119 8:0.66666667 9:2 10:0.76666667 
1 0:1 1:1 2:0.12 3:0.042 4:0.112 5:0.78362168 6:0.73296703 7:0.53724067 8:0.66666667 9:2 10:0.66666667 
1 0:1 1:1 2:0 3:0.181 4:0.934 5:0.52777778 6:0.66666667 7:0.44444444 8:0.86666667 9:0 10:0.86666667 
1 0:1 1:1 2:0 3:0 4:0.046 5:0.8200692 6:0.78839286 7:0.6215633 8:0.78333333 9:2 10:0.78333333 
1 0:1 1:1 2:0.06 3:0 4:0 5:0.83957219 6:0.77191697 7:0.63765782 8:0.77777778 9:2 10:0.77777778 
1 0:0 1:1 2:0 3:7 4:0 5:0.79144385 6:0.82857143 7:0.68653061 8:0.85 9:2 10:0.85 
1 0:1 1:1 2:0 3:0.001 4:0.02 5:0.84152249 6:0.86875 7:0.75472656 8:0.73333333 9:2 10:0.73333333 
1 0:1 1:1 2:0.06 3:0.001 4:1.429 5:0.90076726 6:0.73611111 7:0.54185957 8:0.93333333 9:2 10:0.93333333 
-1 0:1 1:1 2:0 3:0.28 4:0 5:0 6:0.58333333 7:0.34027778 8:0.68888889 9:0 10:0.79377778 
-1 0:1 1:1 2:0 3:0.279 4:0.001 5:0.38888889 6:0 7:0 8:0.66666667 9:0 10:0.76 
-1 0:1 1:1 2:0.06 3:0.4 4:0 5:0 6:0 7:0 8:0.73 9:0 10:0.73 
-1 0:1 1:1 2:18.42 3:0.15 4:0.001 5:0 6:0 7:0 8:0.81333333 9:0 10:0.81333333 
-1 0:1 1:1 2:0.12 3:0 4:0.001 5:1 6:0 7:0 8:0.66666667 9:0 10:0.71666667 
-1 0:1 1:1 2:0 3:0.286 4:0 5:0 6:0 7:0 8:0.66666667 9:0 10:0.7 
-1 0:1 1:1 2:0.06 3:0.225 4:0 5:0.61111111 6:0.66666667 7:0.44444444 8:0.66666667 9:0 10:0.7 
-1 0:1 1:1 2:0.84 3:0.455 4:0.002 5:0.56666667 6:0.58333333 7:0.34027778 8:0.69444444 9:0 10:0.69444444 
-1 0:1 1:1 2:0.06 3:0.393 4:0 5:0.55555556 6:0 7:0 8:0.69444444 9:0 10:0.69444444 
-1 0:1 1:1 2:0 3:0.372 4:0.005 5:0.50246914 6:0 7:0 8:0.69444444 9:0 10:0.69444444 
-1 0:1 1:1 2:0 3:0.411 4:0 5:0 6:0 7:0 8:0.69444444 9:0 10:0.69444444 
-1 0:1 1:1 2:0.06 3:0 4:0 5:0.55555556 6:0.58333333 7:0.34027778 8:0.69444444 9:0 10:0.69444444 
-1 0:1 1:1 2:0.06 3:0.304 4:0 5:0.77777778 6:0.66666667 7:0.44444444 8:0.69444444 9:0 10:0.69444444 
-1 0:1 1:1 2:0.06 3:0.327 4:0 5:0 6:0 7:0 8:0.69444444 9:0 10:0.69444444 
-1 0:1 1:1 2:0 3:0 4:0 5:0.55555556 6:0 7:0 8:0.69444444 9:0 10:0.69444444 
-1 0:1 1:1 2:0 3:0 4:0 5:0 6:0 7:0 8:0.63333333 9:0 10:0.67833333 
-1 0:1 1:1 2:0 3:0 4:0.001 5:0 6:0.58333333 7:0.34027778 8:0.63333333 9:0 10:0.67833333 
-1 0:0 1:1 2:0.12 3:7.444 4:0.173 5:0 6:0 7:0 8:0.84 9:0 10:0.873 
-1 0:1 1:1 2:0.06 3:0 4:0 5:0.55555556 6:0 7:0 8:0.69444444 9:0 10:0.66666667 
-1 0:1 1:1 2:0 3:0 4:0 5:0 6:0 7:0 8:0.69444444 9:0 10:0.66666667 
-1 0:1 1:1 2:0.06 3:0.428 4:0 5:0 6:0 7:0 8:0.69444444 9:0 10:0.66666667 
-1 0:1 1:1 2:0 3:0 4:0 5:0 6:0.83333333 7:0.69444444 8:0.66666667 9:0 10:0.66666667 
-1 0:1 1:1 2:0 3:0 4:0.001 5:0 6:0.5 7:0.25 8:0.69444444 9:0 10:0.66666667 
-1 0:1 1:1 2:0.06 3:0.215 4:0 5:0 6:0 7:0 8:0.69444444 9:0 10:0.66666667 
-1 0:1 1:1 2:0.06 3:0.001 4:0 5:0.83957219 6:0.89333333 7:0.79804444 8:0.66666667 9:2 10:0.66666667 
-1 0:1 1:1 2:0 3:0 4:0 5:0 6:0 7:0 8:0.69444444 9:0 10:0.66666667 
-1 0:1 1:1 2:0.06 3:0 4:0 5:0 6:0.58333333 7:0.34027778 8:0.69444444 9:0 10:0.66666667 
-1 0:1 1:1 2:0 3:0.343 4:0 5:0 6:0.58333333 7:0.34027778 8:0.69444444 9:0 10:0.66666667 
-1 0:1 1:1 2:0.06 3:0.001 4:0 5:0 6:0.58333333 7:0.34027778 8:0.66666667 9:0 10:0.66666667 
-1 0:1 1:1 2:0 3:0.382 4:0 5:0 6:0 7:0 8:0.69444444 9:0 10:0.66666667 
-1 0:1 1:1 2:0.06 3:0.492 4:0 5:0 6:0 7:0 8:0.69444444 9:0 10:0.66666667 
-1 0:1 1:1 2:0.06 3:0.045 4:0 5:0.83315508 6:0.92857143 7:0.8622449 8:0.61111111 9:2 10:0.65277778 
-1 0:1 1:1 2:0 3:0 4:0 5:0.8627451 6:0.71733822 7:0.51457412 8:0.61111111 9:2 10:0.65277778 
-1 0:1 1:1 2:0 3:0 4:0 5:0 6:0.58333333 7:0.34027778 8:0.64755556 9:0 10:0.64755556 
-1 0:1 1:1 2:0.06 3:0 4:0.001 5:0.75757576 6:0.72698413 7:0.52850592 8:0.6 9:2 10:0.64 
-1 0:1 1:1 2:0.06 3:0.054 4:0 5:0.80588235 6:0.8 7:0.64 8:0.63333333 9:2 10:0.63333333 
-1 0:1 1:1 2:0 3:0 4:0 5:0.73083779 6:0.87142857 7:0.75938776 8:0.63333333 9:2 10:0.63333333 
-1 0:1 1:1 2:0 3:0 4:0 5:0.84313725 6:0.79487179 7:0.63182117 8:0.63333333 9:2 10:0.63333333 
-1 0:1 1:1 2:0 3:0.005 4:0 5:0.80891266 6:0.83012821 7:0.68911284 8:0.63333333 9:2 10:0.63333333 
-1 0:1 1:1 2:0.12 3:0 4:0 5:0.92941176 6:0.85 7:0.7225 8:0.63333333 9:2 10:0.63333333 
-1 0:1 1:1 2:0.42 3:0.127 4:0 5:0 6:0.5 7:0.25 8:0.85 9:0 10:0.895 
-1 0:1 1:1 2:0.06 3:0.3 4:0.1 5:0.825 6:0 7:0 8:0.69444444 9:0 10:0.69444444 
-1 0:1 1:1 2:0.06 3:0.35 4:0.001 5:0.50246914 6:0.5 7:0.25 8:0.69444444 9:0 10:0.66666667 
-1 0:1 1:1 2:0.12 3:0 4:0.09 5:0.76114082 6:0.7172619 7:0.51446464 8:0.63333333 9:2 10:0.67833333 
-1 0:1 1:1 2:0.06 3:0.048 4:0.01 5:0.85882353 6:0.72698413 7:0.52850592 8:0.66666667 9:2 10:0.66666667 
-1 0:1 1:1 2:0.12 3:0.346 4:0 5:0.58333333 6:0 7:0 8:0.90666667 9:0 10:0.90666667 
-1 0:1 1:1 2:0.3 3:0.001 4:0 5:0.92941176 6:0.70933333 7:0.71308642 8:0.86666667 9:2 10:0.90666667 
-1 0:1 1:1 2:0.24 3:0.034 4:0.011 5:0.40740741 6:0.58333333 7:0.34027778 8:0.55944444 9:0 10:0.73324444 
-1 0:1 1:1 2:0.06 3:0.493 4:0.05 5:0 6:0 7:0 8:0.69444444 9:0 10:0.69444444 
-1 0:1 1:1 2:0 3:0.49 4:0.066 5:0 6:0 7:0 8:0.69444444 9:0 10:0.69444444 
-1 0:1 1:1 2:0.9 3:0.455 4:0.006 5:0.56666667 6:0.58333333 7:0.34027778 8:0.73 9:0 10:0.796 
-1 0:0 1:1 2:0.78 3:7.072 4:0.014 5:0.33950617 6:0 7:0 8:0.86666667 9:0 10:0.86666667 
-1 0:1 1:1 2:0 3:0 4:0 5:0 6:0 7:0 8:0.63333333 9:0 10:0.67833333 
-1 0:1 1:1 2:0.3 3:0 4:0 5:0.92727273 6:0.80714286 7:0.65147959 8:0.63333333 9:2 10:0.67833333 
-1 0:1 1:1 2:0 3:0 4:0.912 5:0.85716446 6:0.65058751 7:0.72913856 8:0.84833333 9:2 10:0.84833333 
-1 0:1 1:1 2:0.12 3:0.053 4:0.061 5:0.81337947 6:0.83589744 7:0.69872452 8:0.66666667 9:2 10:0.66666667 
-1 0:1 1:1 2:7.98 3:0.35 4:0.134 5:0.42222222 6:0 7:0 8:0.91111111 9:0 10:0.91111111 
-1 0:1 1:1 2:0 3:0 4:0 5:0.6973572 6:0.62177812 7:0.5719935 8:0.77777778 9:2 10:0.84444444 
-1 0:1 1:1 2:0.12 3:0.039 4:0.002 5:0.92173913 6:0.80555556 7:0.6387486 8:0.66666667 9:2 10:0.83 
-1 0:1 1:1 2:0.06 3:0 4:0.006 5:0 6:0.58333333 7:0.34027778 8:0.93333333 9:0 10:0.93333333 
-1 0:1 1:1 2:0.3 3:0.343 4:0.034 5:0 6:0 7:0 8:0.78333333 9:0 10:0.82833333 
-1 0:1 1:1 2:0.06 3:0.2 4:0 5:0.8 6:0.25 7:0.25 8:0.82222222 9:0 10:0.82222222 
-1 0:1 1:1 2:0 3:0 4:0 5:0.89411765 6:0.61587302 7:0.37929957 8:0.82222222 9:2 10:0.82222222 
-1 0:1 1:1 2:0 3:0.001 4:0.01 5:0.90510397 6:0.85303188 7:0.88164783 8:0.89333333 9:2 10:0.92533333 
-1 0:1 1:1 2:0 3:0.031 4:0 5:0.81500426 6:0.58461538 7:0.44444444 8:0.805 9:2 10:0.805 
-1 0:1 1:1 2:0.66 3:0 4:0.507 5:0.63950617 6:0 7:0 8:0.73 9:0 10:0.763 
-0.3200532603199724 0:1 1:0 2:3.78 3:0.184 4:0.028 5:0 6:0.5 7:0.25 8:0.76 9:1 10:0.796 
-1 0:1 1:1 2:0 3:0 4:0.125 5:0.69048815 6:0.72204082 7:0.68653061 8:0.925 9:2 10:0.925 
-1 0:0 1:1 2:1.86 3:7.002 4:0.143 5:0.75200712 6:0.85714286 7:0.73469388 8:0.75 9:2 10:0.8025 
-1 0:1 1:1 2:5.16 3:0.012 4:0.011 5:0.80006291 6:0.63333333 7:0.40111111 8:0.70488889 9:2 10:0.72915556 
-1 0:1 1:1 2:0.12 3:0 4:0.204 5:0 6:0 7:0 8:0.775 9:0 10:0.8125 
-1 0:1 1:1 2:3.48 3:0.009 4:0.026 5:0.81585404 6:0.76525714 7:0.63543673 8:0.73666667 9:2 10:0.77566667 
-1 0:1 1:1 2:0 3:0 4:0.01 5:0.90409207 6:0.66106443 7:0.43700618 8:0.77777778 9:2 10:0.84444444 
-1 0:1 1:1 2:0.72 3:0.001 4:0.055 5:0.72546412 6:0.825 7:0.680625 8:0.66666667 9:2 10:0.66666667 
-1 0:1 1:1 2:1.14 3:0.02 4:0.154 5:0 6:0 7:0 8:0.69783333 9:0 10:0.72050556 
-1 0:1 1:1 2:0.84 3:0.052 4:0.009 5:0.87391003 6:0.67838542 7:0.66015625 8:0.75 9:2 10:0.75 
-1 0:1 1:1 2:1.02 3:0.368 4:0.018 5:0 6:0.58333333 7:0.34027778 8:0.73 9:0 10:0.73 
-1 0:1 1:1 2:0.06 3:0 4:0 5:0.52777778 6:0.25 7:0.25 8:0.69444444 9:0 10:0.69444444 
-1 0:1 1:1 2:0.18 3:0.043 4:0 5:0.83957219 6:0.42920194 7:0.24369111 8:0.68888889 9:2 10:0.68888889 
-1 0:1 1:1 2:0 3:0.007 4:0.152 5:0 6:0 7:0 8:0.69783333 9:0 10:0.72050556 
-1 0:1 1:1 2:7.86 3:0.014 4:0.029 5:0.53813149 6:0.69257537 7:0.6216716 8:0.74276296 9:2 10:0.79087241 
-1 0:1 1:1 2:0.06 3:0.035 4:0.002 5:0.87354164 6:0.70970899 7:0.58656148 8:0.66666667 9:2 10:0.66666667 
-1 0:1 1:1 2:0.18 3:0.005 4:0.103 5:0.7785124 6:0.75400895 7:0.69004227 8:0.66666667 9:2 10:0.77333333 
-1 0:1 1:1 2:0 3:0.042 4:0.02 5:0.81384516 6:0.59191684 7:0.6411727 8:0.96 9:2 10:0.96 
-1 0:1 1:0 2:1.02 3:0.304 4:0.037 5:0 6:0 7:0 8:0.76 9:1 10:0.796 
-1 0:1 1:1 2:7.38 3:0.039 4:0.164 5:0.6373787 6:0.85714286 7:0.73469388 8:0.76 9:2 10:0.76 
-0.9511520805479994 0:1 1:1 2:1.14 3:0.393 4:0.115 5:0.30864198 6:0 7:0 8:0.69444444 9:0 10:0.69444444 
-1 0:1 1:1 2:0.78 3:0 4:0.012 5:0 6:0 7:0 8:0.66666667 9:0 10:0.7 
-1 0:1 1:1 2:0.66 3:0 4:0.006 5:0 6:0 7:0 8:0.66666667 9:0 10:0.81333333 
-0.7530836559773733 0:1 1:1 2:29.94 3:0.175 4:0.479 5:0.33950617 6:0.25 7:0.25 8:0.96 9:0 10:0.96 
-1 0:1 1:1 2:1.68 3:0 4:0.038 5:0 6:0 7:0 8:0.73 9:0 10:0.763 
-1 0:1 1:1 2:2.04 3:0.315 4:0.173 5:0.30864198 6:0 7:0 8:0.90666667 9:0 10:0.90666667 
-1 0:1 1:1 2:1.2 3:0.028 4:0.02 5:0.82581387 6:0.76488095 7:0.58504287 8:0.63333333 9:2 10:0.67833333 
-1 0:1 1:1 2:3.66 3:0.295 4:0.072 5:0 6:0 7:0 8:0.74592593 9:0 10:0.74592593 
-1 0:1 1:1 2:1.32 3:0.02 4:0.206 5:0 6:0 7:0 8:0.73022222 9:0 10:0.73022222 
-1 0:1 1:1 2:0.96 3:0.497 4:0.007 5:0.44444444 6:0 7:0 8:0.7262963 9:0 10:0.7262963 
-1 0:1 1:1 2:0.84 3:0.497 4:0.006 5:0 6:0.58333333 7:0.34027778 8:0.68741667 9:0 10:0.71849167 
-1 0:1 1:1 2:9.48 3:0.184 4:0.324 5:0.43209877 6:0.5 7:0.25 8:0.78666667 9:0 10:0.78666667 
-1 0:1 1:1 2:0.36 3:0.493 4:0.219 5:0 6:0 7:0 8:0.66666667 9:0 10:0.83666667 
-1 0:1 1:1 2:1.02 3:0.492 4:0.197 5:0.33950617 6:0 7:0 8:0.66666667 9:0 10:0.81333333 
-1 0:1 1:1 2:1.62 3:0 4:0.291 5:0 6:0 7:0 8:0.73 9:0 10:0.763 
-1 0:1 1:1 2:0.36 3:0 4:0.151 5:0.85035027 6:0.7060636 7:0.73757785 8:0.61444444 9:2 10:0.66711111 
-1 0:1 1:1 2:0.06 3:0.345 4:0.008 5:0 6:0.38888889 7:0.34027778 8:0.66186667 9:0 10:0.72170667 
-1 0:1 1:1 2:0.24 3:0.155 4:0.175 5:0.39583333 6:0 7:0 8:0.82666667 9:0 10:0.82666667 
-1 0:1 1:1 2:0.78 3:0.038 4:0.006 5:0.73278237 6:0.81666667 7:0.66694444 8:0.75 9:2 10:0.75 
-1 0:1 1:1 2:0 3:0.003 4:1.193 5:0.77466827 6:0.6984127 7:0.4877803 8:0.79804444 9:2 10:0.79804444 
-1 0:1 1:1 2:14.58 3:0.017 4:0.344 5:0.8083045 6:0.80714286 7:0.65147959 8:0.78911111 9:2 10:0.78911111 
-1 0:1 1:1 2:0.36 3:0.395 4:0.103 5:0.33950617 6:0 7:0 8:0.66666667 9:0 10:0.71666667 
-1 0:1 1:1 2:7.32 3:0.019 4:0.254 5:0.26388889 6:0 7:0 8:0.78911111 9:0 10:0.78911111 
-1 0:1 1:1 2:9.96 3:0.038 4:0.119 5:0.86380623 6:0.68352588 7:0.56387446 8:0.73022222 9:2 10:0.73022222 
-1 0:1 1:1 2:0.36 3:0.048 4:0.03 5:0.85259516 6:0.76488095 7:0.58504287 8:0.64296296 9:2 10:0.64296296 
-1 0:1 1:1 2:1.32 3:0.023 4:0.612 5:0.79615052 6:0.81666667 7:0.66694444 8:0.66666667 9:2 10:0.745 
-1 0:1 1:1 2:1.32 3:0.024 4:0.011 5:0.92859504 6:0.75 7:0.5625 8:0.70518519 9:2 10:0.72696296 
-1 0:1 1:1 2:1.62 3:0 4:0.006 5:0 6:0 7:0 8:0.67235556 9:0 10:0.70163556 
-1 0:1 1:1 2:2.22 3:0.049 4:0.21 5:0.7992301 6:0.69304267 7:0.54478458 8:0.71644444 9:2 10:0.71644444 
-1 0:1 1:1 2:0.66 3:0.005 4:0.103 5:0.8083045 6:0.82828283 7:0.68605244 8:0.66666667 9:2 10:0.66666667 
-1 0:1 1:1 2:0.42 3:0 4:0.009 5:0.84231405 6:0.84102564 7:0.70732413 8:0.58888889 9:2 10:0.68415833 
-1 0:1 1:1 2:0.6 3:0.345 4:0.007 5:0 6:0 7:0 8:0.66666667 9:0 10:0.76 
-1 0:1 1:1 2:2.4 3:0.012 4:0.065 5:0.94200692 6:0.68888889 7:0.4745679 8:0.68997778 9:2 10:0.68997778 
-1 0:1 1:1 2:4.2 3:0 4:0.042 5:0.84207612 6:0.73296703 7:0.53724067 8:0.64296296 9:2 10:0.68154074 
-1 0:1 1:1 2:0.72 3:0.017 4:0.026 5:0.56330579 6:0.65384615 7:0.42751479 8:0.63377778 9:2 10:0.66133333 
-1 0:1 1:1 2:0.42 3:0.045 4:0.112 5:0.72961309 6:0.56641975 7:0.4745679 8:0.66666667 9:2 10:0.745 
-1 0:1 1:1 2:0.84 3:0.038 4:0.011 5:0.72082645 6:0.70940171 7:0.50325079 8:0.66666667 9:2 10:0.66666667 
-1 0:1 1:1 2:2.64 3:0.005 4:0.006 5:0.68484848 6:0.8125 7:0.66015625 8:0.66735556 9:2 10:0.66735556 
-1 0:1 1:1 2:0.72 3:0 4:0.009 5:0 6:0 7:0 8:0.86666667 9:0 10:0.86666667 
-1 0:1 1:1 2:0.96 3:0 4:0.014 5:0.80192933 6:0.76190476 7:0.58049887 8:0.66666667 9:2 10:0.66666667 
-1 0:1 1:0 2:6.96 3:0 4:0.111 5:0 6:0.58333333 7:0.34027778 8:0.87555556 9:1 10:0.87555556 
