svm_type c_svc
kernel_type linear
nr_class 2
total_sv 191
rho 13.3056
label 1 0
nr_sv 96 95
SV
0.3504011634585332 0:0 1:1 2:0.06 3:7 4:0 5:1 6:1 7:1 8:0.94666667 9:0 10:0.94666667 
1 0:1 1:1 2:0 3:0.343 4:0 5:0 6:1 7:1 8:0.85 9:0 10:0.85 
1 0:1 1:1 2:0 3:0.211 4:0 5:0 6:1 7:1 8:0.85 9:0 10:0.85 
0.1032616138354877 0:1 1:1 2:0.06 3:0.012 4:0 5:0 6:1 7:1 8:0.85 9:0 10:0.85 
1 0:1 1:1 2:0 3:0.472 4:0 5:0 6:1 7:1 8:0.85 9:0 10:0.85 
1 0:1 1:1 2:0.06 3:0.392 4:0 5:0 6:1 7:1 8:0.84444444 9:0 10:0.84444444 
1 0:1 1:1 2:0 3:0.28 4:0 5:0 6:1 7:1 8:0.84444444 9:0 10:0.84444444 
1 0:1 1:1 2:0.06 3:0.398 4:0 5:1 6:1 7:1 8:0.77066667 9:0 10:0.83866667 
0.4726424737807286 0:1 1:0 2:0.06 3:0.003 4:0 5:1 6:1 7:1 8:0.916 9:1 10:0.916 
1 0:1 1:1 2:0 3:0.46 4:0 5:0 6:1 7:1 8:0.82222222 9:0 10:0.82222222 
1 0:1 1:1 2:0 3:0.295 4:0 5:0 6:1 7:1 8:0.81333333 9:0 10:0.81333333 
1 0:1 1:1 2:0 3:0.322 4:0 5:0 6:1 7:1 8:0.81333333 9:0 10:0.81333333 
1 0:1 1:1 2:0 3:0.369 4:0 5:1 6:1 7:1 8:0.80088889 9:0 10:0.80088889 
1 0:1 1:1 2:0.06 3:0 4:0 5:0 6:1 7:1 8:0.80088889 9:2 10:0.80088889 
1 0:1 1:1 2:0 3:0.074 4:0.001 5:0 6:1 7:1 8:0.8 9:0 10:0.8 
1 0:1 1:1 2:0.06 3:0 4:0 5:1 6:1 7:1 8:0.8 9:0 10:0.8 
1 0:1 1:1 2:0 3:0 4:0 5:1 6:1 7:1 8:0.8 9:0 10:0.8 
1 0:1 1:1 2:0 3:0 4:0 5:1 6:1 7:1 8:0.79804444 9:0 10:0.79804444 
1 0:1 1:1 2:0 3:0.364 4:0 5:1 6:1 7:1 8:0.79733333 9:0 10:0.79733333 
1 0:1 1:1 2:0 3:0.2 4:0 5:1 6:1 7:1 8:0.79733333 9:0 10:0.79733333 
1 0:1 1:1 2:0.36 3:0.18 4:0 5:0 6:1 7:1 8:0.796 9:0 10:0.796 
1 0:1 1:1 2:0.12 3:0.15 4:0 5:0 6:1 7:1 8:0.796 9:0 10:0.796 
0.6576895315919415 0:1 1:1 2:0.12 3:0 4:1.17 5:0.91111111 6:1 7:1 8:0.86666667 9:2 10:0.86666667 
1 0:0 1:1 2:1.32 3:7 4:0 5:0 6:1 7:1 8:0.88333333 9:0 10:0.88333333 
1 0:1 1:1 2:0 3:0.197 4:0 5:1 6:1 7:1 8:0.82204444 9:0 10:0.78577778 
1 0:1 1:1 2:0 3:0 4:0 5:1 6:1 7:1 8:0.78055556 9:0 10:0.78055556 
1 0:1 1:1 2:14.4 3:0.348 4:0 5:1 6:1 7:1 8:0.85066667 9:0 10:0.85066667 
1 0:1 1:1 2:3.72 3:0 4:0 5:1 6:1 7:1 8:0.796 9:0 10:0.796 
1 0:1 1:1 2:0 3:0.001 4:0 5:0 6:1 7:1 8:0.77777778 9:2 10:0.77777778 
1 0:1 1:1 2:0.06 3:0.004 4:0 5:1 6:1 7:1 8:0.77777778 9:0 10:0.77777778 
1 0:1 1:1 2:0 3:0 4:0 5:0 6:1 7:1 8:0.77777778 9:0 10:0.77777778 
1 0:1 1:1 2:0.06 3:0 4:0 5:0 6:1 7:1 8:0.77777778 9:2 10:0.77777778 
1 0:1 1:1 2:0 3:0.032 4:0 5:0 6:1 7:1 8:0.77777778 9:2 10:0.77777778 
1 0:1 1:1 2:25.14 3:0.263 4:0 5:1 6:1 7:1 8:0.90666667 9:0 10:0.90666667 
1 0:1 1:1 2:0 3:0 4:0 5:1 6:1 7:1 8:0.77333333 9:0 10:0.77333333 
1 0:1 1:1 2:0 3:0.255 4:0 5:1 6:1 7:1 8:0.77333333 9:0 10:0.77333333 
1 0:1 1:1 2:0 3:0 4:0 5:1 6:1 7:1 8:0.76666667 9:0 10:0.76666667 
1 0:0 1:1 2:0.18 3:6.993 4:0 5:1 6:1 7:1 8:0.895 9:0 10:0.85 
1 0:1 1:1 2:0.12 3:0 4:0 5:1 6:1 7:1 8:0.72108333 9:2 10:0.7635 
1 0:1 1:1 2:0 3:0 4:0 5:0 6:1 7:1 8:0.76 9:2 10:0.76 
1 0:1 1:1 2:0 3:0 4:0 5:0 6:1 7:1 8:0.76 9:0 10:0.76 
1 0:1 1:1 2:0.06 3:0 4:0 5:1 6:1 7:1 8:0.76 9:0 10:0.76 
1 0:1 1:1 2:0 3:0 4:0 5:1 6:1 7:1 8:0.65 9:2 10:0.76 
1 0:1 1:1 2:0 3:0.188 4:0.805 5:0.85 6:1 7:1 8:0.88333333 9:0 10:0.88333333 
1 0:1 1:1 2:19.98 3:0.16 4:0 5:1 6:1 7:1 8:0.84844444 9:0 10:0.84844444 
1 0:1 1:1 2:0 3:0 4:0 5:1 6:1 7:1 8:0.745 9:2 10:0.745 
1 0:1 1:1 2:0.06 3:0.032 4:0 5:0 6:1 7:1 8:0.745 9:2 10:0.745 
1 0:1 1:1 2:0.06 3:0 4:0 5:1 6:1 7:1 8:0.745 9:2 10:0.745 
1 0:1 1:1 2:0.12 3:0 4:0 5:1 6:1 7:1 8:0.745 9:0 10:0.745 
1 0:1 1:1 2:0 3:0 4:0 5:1 6:1 7:1 8:0.745 9:2 10:0.745 
1 0:1 1:1 2:0 3:0.313 4:0 5:1 6:1 7:1 8:0.745 9:0 10:0.745 
1 0:1 1:1 2:0.06 3:0.377 4:0 5:0 6:1 7:1 8:0.736 9:0 10:0.736 
1 0:1 1:1 2:0.06 3:0.038 4:0 5:1 6:1 7:1 8:0.73333333 9:2 10:0.73333333 
1 0:1 1:1 2:0.06 3:0.313 4:0 5:1 6:1 7:1 8:0.73333333 9:0 10:0.73333333 
1 0:1 1:1 2:0.06 3:0 4:0 5:1 6:0.86666667 7:0.86666667 8:0.84444444 9:0 10:0.84444444 
1 0:1 1:1 2:0 3:0.221 4:0 5:1 6:1 7:1 8:0.72333333 9:0 10:0.72333333 
1 0:1 1:1 2:0 3:0 4:0 5:1 6:1 7:1 8:0.72222222 9:2 10:0.72222222 
1 0:1 1:1 2:0 3:0 4:0 5:1 6:1 7:1 8:0.71666667 9:0 10:0.71666667 
1 0:1 1:1 2:0 3:0 4:0 5:1 6:1 7:1 8:0.69432099 9:2 10:0.69432099 
1 0:1 1:1 2:0 3:0.048 4:0 5:1 6:1 7:1 8:0.688 9:2 10:0.688 
1 0:1 1:1 2:0.24 3:0 4:0.009 5:0.87555556 6:1 7:1 8:0.77066667 9:0 10:0.77066667 
1 0:1 1:1 2:0 3:0 4:0 5:1 6:1 7:1 8:0.745 9:2 10:0.66666667 
1 0:1 1:1 2:0 3:0 4:0 5:0 6:1 7:1 8:0.66666667 9:2 10:0.66666667 
1 0:1 1:1 2:0 3:0 4:0 5:1 6:1 7:1 8:0.66666667 9:2 10:0.66666667 
1 0:1 1:1 2:0 3:0 4:0 5:1 6:1 7:1 8:0.66666667 9:2 10:0.66666667 
1 0:1 1:1 2:0 3:0.259 4:0 5:1 6:1 7:1 8:0.66666667 9:0 10:0.66666667 
1 0:1 1:1 2:0 3:0.001 4:0 5:1 6:1 7:1 8:0.66666667 9:2 10:0.66666667 
1 0:1 1:1 2:0 3:0 4:0 5:1 6:1 7:1 8:0.66666667 9:0 10:0.66666667 
1 0:1 1:1 2:0.06 3:0.04 4:0 5:0 6:1 7:1 8:0.66666667 9:2 10:0.66666667 
1 0:1 1:1 2:0 3:0.078 4:0 5:1 6:1 7:1 8:0.66666667 9:0 10:0.66666667 
1 0:1 1:1 2:0 3:0.388 4:0 5:1 6:0.77333333 7:0.77333333 8:0.85066667 9:0 10:0.85066667 
1 0:1 1:1 2:0.06 3:0 4:0 5:1 6:1 7:1 8:0.65 9:2 10:0.65 
1 0:1 1:1 2:0 3:0 4:0 5:1 6:1 7:1 8:0.64 9:2 10:0.64 
1 0:1 1:1 2:47.46 3:0.318 4:0 5:1 6:1 7:1 8:0.85 9:0 10:0.85 
1 0:1 1:1 2:0.12 3:0.041 4:1.106 5:0.91111111 6:0.66666667 7:0.66666667 8:0.90666667 9:2 10:0.90666667 
1 0:1 1:1 2:0 3:0.05 4:0.01 5:0.79 6:1 7:1 8:0.76666667 9:2 10:0.76666667 
1 0:1 1:1 2:0.42 3:0.127 4:0 5:1 6:0.66666667 7:0.66666667 8:0.895 9:0 10:0.895 
0.1148617899999139 0:1 1:1 2:0 3:0 4:0 5:1 6:0.66666667 7:0.66666667 8:0.92533333 9:0 10:0.89333333 
1 0:1 1:1 2:0 3:0 4:0 5:0 6:0.66666667 7:0.66666667 8:0.88333333 9:0 10:0.88333333 
1 0:1 1:1 2:0.12 3:0.042 4:0.112 5:0.85 6:1 7:1 8:0.66666667 9:2 10:0.66666667 
1 0:1 1:1 2:0 3:0.212 4:0 5:1 6:0.66666667 7:0.66666667 8:0.85 9:0 10:0.85 
1 0:1 1:1 2:0 3:0 4:0 5:1 6:0.66666667 7:0.66666667 8:0.85 9:0 10:0.85 
1 0:1 1:1 2:0.36 3:0.004 4:0 5:1 6:0.61222222 7:0.61222222 8:0.88333333 9:2 10:0.88333333 
1 0:1 1:1 2:0 3:0.309 4:0.38 5:0.85 6:0.66666667 7:0.66666667 8:0.95333333 9:0 10:0.95333333 
1 0:1 1:1 2:0 3:0.181 4:0.934 5:0.61111111 6:1 7:1 8:0.86666667 9:0 10:0.86666667 
1 0:1 1:1 2:0 3:0.31 4:0 5:1 6:0.58333333 7:0.58333333 8:0.86666667 9:0 10:0.90666667 
1 0:1 1:1 2:0.06 3:0 4:0 5:1 6:0.66666667 7:0.66666667 8:0.77777778 9:2 10:0.77777778 
1 0:0 1:1 2:0 3:7 4:0 5:1 6:0.66666667 7:0.66666667 8:0.85 9:2 10:0.85 
1 0:1 1:1 2:0.06 3:0 4:0 5:0 6:0.55 7:0.55 8:0.92 9:0 10:0.92 
1 0:1 1:1 2:0 3:0.001 4:0.02 5:0.66666667 6:1 7:1 8:0.73333333 9:2 10:0.73333333 
1 0:1 1:1 2:0 3:0.314 4:0 5:1 6:0.5 7:0.5 8:0.95333333 9:0 10:0.95333333 
1 0:1 1:1 2:0.06 3:0.001 4:1.429 5:0.91111111 6:0.55 7:0.55 8:0.93333333 9:2 10:0.93333333 
1 0:1 1:1 2:0.12 3:0 4:0 5:1 6:0.5 7:0.5 8:0.91833333 9:2 10:0.91833333 
1 0:1 1:1 2:0.06 3:0.14 4:0 5:1 6:0.5 7:0.5 8:0.916 9:0 10:0.916 
1 0:1 1:1 2:0 3:0.043 4:0 5:0 6:0.5 7:0.5 8:0.84444444 9:2 10:0.84444444 
1 0:1 1:1 2:0 3:0 4:0 5:1 6:0.5 7:0.5 8:0.84444444 9:2 10:0.84444444 
-1 0:1 1:1 2:0 3:0.28 4:0 5:1 6:1 7:1 8:0.79377778 9:0 10:0.79377778 
-1 0:1 1:1 2:0 3:0.279 4:0.001 5:1 6:1 7:1 8:0.66666667 9:0 10:0.76 
-1 0:1 1:1 2:0.06 3:0.4 4:0 5:1 6:1 7:1 8:0.73 9:0 10:0.73 
-1 0:1 1:1 2:18.42 3:0.15 4:0.001 5:0 6:1 7:1 8:0.81333333 9:0 10:0.81333333 
-1 0:1 1:1 2:0.12 3:0 4:0.001 5:0 6:1 7:1 8:0.76666667 9:0 10:0.71666667 
-1 0:1 1:1 2:0 3:0.286 4:0 5:0 6:1 7:1 8:0.7 9:0 10:0.7 
-1 0:1 1:1 2:0.06 3:0.225 4:0 5:1 6:1 7:1 8:0.7 9:0 10:0.7 
-1 0:1 1:1 2:0.84 3:0.455 4:0.002 5:0 6:1 7:1 8:0.69444444 9:0 10:0.69444444 
-1 0:1 1:1 2:0.06 3:0.393 4:0 5:1 6:1 7:1 8:0.69444444 9:0 10:0.69444444 
-1 0:1 1:1 2:0 3:0.372 4:0.005 5:1 6:1 7:1 8:0.69444444 9:0 10:0.69444444 
-1 0:1 1:1 2:0 3:0.411 4:0 5:1 6:1 7:1 8:0.69444444 9:0 10:0.69444444 
-1 0:1 1:1 2:0.06 3:0 4:0 5:1 6:1 7:1 8:0.69444444 9:0 10:0.69444444 
-1 0:1 1:1 2:0.06 3:0.304 4:0 5:1 6:1 7:1 8:0.69444444 9:0 10:0.69444444 
-1 0:1 1:1 2:0.06 3:0.327 4:0 5:1 6:1 7:1 8:0.69444444 9:0 10:0.69444444 
-1 0:1 1:1 2:0 3:0 4:0 5:1 6:1 7:1 8:0.69444444 9:0 10:0.69444444 
-1 0:1 1:1 2:0 3:0 4:0 5:0 6:1 7:1 8:0.67833333 9:0 10:0.67833333 
-1 0:1 1:1 2:0 3:0 4:0.001 5:1 6:1 7:1 8:0.67833333 9:0 10:0.67833333 
-1 0:0 1:1 2:0.12 3:7.444 4:0.173 5:0.85 6:1 7:1 8:0.873 9:0 10:0.873 
-1 0:1 1:1 2:0.06 3:0 4:0 5:1 6:1 7:1 8:0.69444444 9:0 10:0.66666667 
-1 0:1 1:1 2:0 3:0 4:0 5:1 6:1 7:1 8:0.69444444 9:0 10:0.66666667 
-1 0:1 1:1 2:0.06 3:0.428 4:0 5:1 6:1 7:1 8:0.69444444 9:0 10:0.66666667 
-1 0:1 1:1 2:0 3:0 4:0 5:1 6:1 7:1 8:0.66666667 9:0 10:0.66666667 
-1 0:1 1:1 2:0 3:0 4:0.001 5:1 6:1 7:1 8:0.69444444 9:0 10:0.66666667 
-1 0:1 1:1 2:0.06 3:0.215 4:0 5:1 6:1 7:1 8:0.69444444 9:0 10:0.66666667 
-1 0:1 1:1 2:0.06 3:0.001 4:0 5:1 6:1 7:1 8:0.66666667 9:2 10:0.66666667 
-1 0:1 1:1 2:0 3:0 4:0 5:0 6:1 7:1 8:0.69444444 9:0 10:0.66666667 
-1 0:1 1:1 2:0.06 3:0 4:0 5:1 6:1 7:1 8:0.69444444 9:0 10:0.66666667 
-1 0:1 1:1 2:0 3:0.343 4:0 5:1 6:1 7:1 8:0.69444444 9:0 10:0.66666667 
-1 0:1 1:1 2:0.06 3:0.001 4:0 5:1 6:1 7:1 8:0.66666667 9:0 10:0.66666667 
-1 0:1 1:1 2:0 3:0.382 4:0 5:1 6:1 7:1 8:0.69444444 9:0 10:0.66666667 
-1 0:1 1:1 2:0.06 3:0.492 4:0 5:1 6:1 7:1 8:0.69444444 9:0 10:0.66666667 
-1 0:1 1:1 2:0 3:0 4:0 5:1 6:1 7:1 8:0.65335 9:0 10:0.65335 
-1 0:1 1:1 2:0.06 3:0.045 4:0 5:1 6:1 7:1 8:0.65277778 9:2 10:0.65277778 
-1 0:1 1:1 2:0 3:0 4:0 5:1 6:1 7:1 8:0.65277778 9:2 10:0.65277778 
-1 0:1 1:1 2:0 3:0 4:0 5:1 6:1 7:1 8:0.64755556 9:0 10:0.64755556 
-1 0:1 1:1 2:0.06 3:0 4:0.001 5:1 6:1 7:1 8:0.64 9:2 10:0.64 
-1 0:1 1:1 2:0.06 3:0.054 4:0 5:1 6:1 7:1 8:0.63333333 9:2 10:0.63333333 
-1 0:1 1:1 2:0 3:0 4:0 5:1 6:1 7:1 8:0.63333333 9:2 10:0.63333333 
-1 0:1 1:1 2:0 3:0 4:0 5:1 6:1 7:1 8:0.63333333 9:2 10:0.63333333 
-1 0:1 1:1 2:0 3:0.005 4:0 5:1 6:1 7:1 8:0.63333333 9:2 10:0.63333333 
-1 0:1 1:1 2:0.12 3:0 4:0 5:1 6:1 7:1 8:0.63333333 9:2 10:0.63333333 
-1 0:1 1:1 2:0.06 3:0 4:0 5:1 6:1 7:1 8:0.6 9:2 10:0.6 
-1 0:1 1:1 2:10.32 3:0.465 4:0.16 5:0.85 6:1 7:1 8:0.74501037 9:0 10:0.74501037 
-1 0:1 1:1 2:0.06 3:0.3 4:0.1 5:0.85 6:1 7:1 8:0.69444444 9:0 10:0.69444444 
-1 0:1 1:1 2:3 3:0.019 4:0.3 5:0.85 6:1 7:1 8:0.70266667 9:0 10:0.70266667 
-0.7701110770943207 0:1 1:1 2:11.88 3:0.007 4:0.255 5:0 6:1 7:1 8:0.71728395 9:2 10:0.71728395 
-0.06757893253497403 0:1 1:1 2:0.06 3:0.35 4:0.001 5:1 6:0.85 7:0.85 8:0.69444444 9:0 10:0.66666667 
-1 0:0 1:1 2:11.58 3:6.994 4:0.044 5:0.82222222 6:1 7:1 8:0.81333333 9:2 10:0.81333333 
-1 0:1 1:1 2:0.12 3:0 4:0.09 5:0.79 6:1 7:1 8:0.67833333 9:2 10:0.67833333 
-1 0:1 1:1 2:0.06 3:0.423 4:0.09 5:0.79 6:1 7:1 8:0.66666667 9:0 10:0.66666667 
-1 0:1 1:1 2:0.06 3:0.048 4:0.01 5:0.79 6:1 7:1 8:0.66666667 9:2 10:0.66666667 
-1 0:1 1:1 2:2.76 3:0.004 4:0.085 5:0 6:1 7:1 8:0.64 9:2 10:0.68 
-1 0:1 1:1 2:0.12 3:0.346 4:0 5:1 6:0.55 7:0.55 8:0.90666667 9:0 10:0.90666667 
-1 0:1 1:1 2:0.24 3:0.034 4:0.011 5:0.66666667 6:1 7:1 8:0.68782222 9:0 10:0.73324444 
-1 0:1 1:1 2:0.06 3:0.493 4:0.05 5:0.66666667 6:1 7:1 8:0.69444444 9:0 10:0.69444444 
-1 0:1 1:1 2:0 3:0.49 4:0.066 5:0.66666667 6:1 7:1 8:0.69444444 9:0 10:0.69444444 
-1 0:1 1:1 2:0.9 3:0.455 4:0.006 5:0 6:0.745 7:0.745 8:0.796 9:0 10:0.796 
-1 0:1 1:1 2:0 3:0 4:0.912 5:0.91111111 6:0.58333333 7:0.58333333 8:0.84833333 9:2 10:0.84833333 
-1 0:1 1:1 2:0.06 3:0.039 4:0.694 5:0.6715 6:1 7:1 8:0.66666667 9:2 10:0.66666667 
-1 0:1 1:1 2:0.12 3:0.053 4:0.061 5:0.66666667 6:1 7:1 8:0.66666667 9:2 10:0.66666667 
-1 0:1 1:1 2:7.98 3:0.35 4:0.134 5:0.49155556 6:1 7:1 8:0.91111111 9:0 10:0.91111111 
-1 0:1 1:1 2:0 3:0 4:0 5:1 6:0.5 7:0.5 8:0.84444444 9:2 10:0.84444444 
-1 0:1 1:1 2:0.12 3:0.039 4:0.002 5:1 6:0.5 7:0.5 8:0.745 9:2 10:0.83 
-1 0:1 1:1 2:0.3 3:0.343 4:0.034 5:0.66666667 6:0.745 7:0.745 8:0.82833333 9:0 10:0.82833333 
-1 0:1 1:1 2:0 3:0 4:0 5:1 6:0.5 7:0.5 8:0.82222222 9:2 10:0.82222222 
-1 0:1 1:1 2:0 3:0.001 4:0.01 5:0.87555556 6:0.5 7:0.5 8:0.89333333 9:2 10:0.92533333 
-1 0:1 1:1 2:0 3:0.031 4:0 5:1 6:0.55 7:0.55 8:0.805 9:2 10:0.805 
-1 0:1 1:1 2:0.66 3:0 4:0.507 5:0.52666667 6:1 7:1 8:0.763 9:0 10:0.763 
-1 0:1 1:1 2:1.02 3:0.001 4:0.289 5:0.56666667 6:1 7:1 8:0.66666667 9:0 10:0.7 
-1 0:1 1:1 2:0 3:0 4:0.125 5:0.85 6:0.5 7:0.5 8:0.925 9:2 10:0.925 
-1 0:0 1:1 2:1.86 3:7.002 4:0.143 5:0.54814815 6:1 7:1 8:0.8025 9:2 10:0.8025 
-1 0:1 1:1 2:0.12 3:0 4:0.204 5:0.85 6:0.55 7:0.55 8:0.8125 9:0 10:0.8125 
-1 0:1 1:1 2:3.48 3:0.009 4:0.026 5:0.66666667 6:0.66666667 7:0.66666667 8:0.73666667 9:2 10:0.77566667 
-0.7720147506513032 0:1 1:1 2:5.4 3:0.252 4:0.21 5:0.55555556 6:1 7:1 8:0.7 9:0 10:0.7 
-1 0:1 1:1 2:2.82 3:0 4:0.136 5:0.56666667 6:1 7:1 8:0.67428444 9:0 10:0.67428444 
-1 0:1 1:1 2:0 3:0 4:0.01 5:0.87555556 6:0.5 7:0.5 8:0.84444444 9:2 10:0.84444444 
-1 0:1 1:1 2:0.72 3:0.001 4:0.055 5:0.54814815 6:1 7:1 8:0.745 9:2 10:0.66666667 
-1 0:1 1:1 2:0.84 3:0.052 4:0.009 5:0.79 6:0.55 7:0.55 8:0.75 9:2 10:0.75 
-1 0:1 1:1 2:1.02 3:0.368 4:0.018 5:0 6:1 7:1 8:0.73 9:0 10:0.73 
-1 0:1 1:1 2:0.18 3:0.005 4:0.103 5:0.85 6:0.50555556 7:0.50555556 8:0.77333333 9:2 10:0.77333333 
-1 0:1 1:1 2:7.32 3:0.3 4:0.527 5:0.44444444 6:1 7:1 8:0.763 9:0 10:0.763 
-1 0:1 1:1 2:0 3:0.042 4:0.02 5:0.66666667 6:0.55 7:0.55 8:0.96 9:2 10:0.96 
-1 0:1 1:0 2:1.02 3:0.304 4:0.037 5:0.44444444 6:1 7:1 8:0.796 9:1 10:0.796 
-1 0:1 1:1 2:7.38 3:0.039 4:0.164 5:0 6:1 7:1 8:0.76 9:2 10:0.76 
-1 0:1 1:1 2:0.66 3:0 4:0.006 5:0 6:0.66666667 7:0.66666667 8:0.81333333 9:0 10:0.81333333 
-1 0:1 1:1 2:1.68 3:0 4:0.038 5:0 6:1 7:1 8:0.763 9:0 10:0.763 
-1 0:1 1:1 2:2.04 3:0.315 4:0.173 5:0.56666667 6:0.55 7:0.55 8:0.90666667 9:0 10:0.90666667 
-1 0:1 1:1 2:0.36 3:0.493 4:0.219 5:0.56666667 6:0.55 7:0.55 8:0.83666667 9:0 10:0.83666667 
-0.9168691129749805 0:1 1:1 2:1.02 3:0.492 4:0.197 5:0.56666667 6:0.55 7:0.55 8:0.83666667 9:0 10:0.81333333 
-0.1722826994110277 0:1 1:1 2:0.24 3:0.155 4:0.175 5:0.55555556 6:0.5 7:0.5 8:0.82666667 9:0 10:0.82666667 
-1 0:1 1:1 2:0.18 3:0 4:0.009 5:0 6:1 7:1 8:0.67833333 9:0 10:0.67833333 
-1 0:1 1:1 2:0.84 3:0.038 4:0.011 5:0 6:1 7:1 8:0.66666667 9:2 10:0.66666667 
-1 0:1 1:1 2:0.72 3:0 4:0.009 5:0 6:0.66666667 7:0.66666667 8:0.86666667 9:0 10:0.86666667 
-1 0:1 1:1 2:0.96 3:0 4:0.014 5:0 6:1 7:1 8:0.66666667 9:2 10:0.66666667 
-1 0:1 1:0 2:6.96 3:0 4:0.111 5:0 6:1 7:1 8:0.87555556 9:1 10:0.87555556 
