svm_type c_svc
kernel_type linear
nr_class 2
total_sv 197
rho 9.61054
label 1 0
nr_sv 98 99
SV
1 0:1 1:1 2:0 3:0.129 4:0.001 5:0 6:0 7:0 8:0.925 9:0 10:0.925 
1 0:1 1:1 2:0.06 3:0.2 4:0.001 5:0 6:1 7:1 8:0.88933333 9:0 10:0.91253333 
1 0:1 1:1 2:0 3:0 4:0.002 5:0 6:0.73214286 7:0.53603316 8:0.89333333 9:2 10:0.89333333 
1 0:1 1:1 2:0 3:0.5 4:0.001 5:0 6:0 7:0 8:0.88333333 9:0 10:0.88333333 
1 0:1 1:1 2:0 3:0.288 4:0.002 5:0.66666667 6:0 7:0 8:0.83333333 9:0 10:0.88333333 
1 0:1 1:1 2:0 3:0.487 4:0.001 5:0 6:0.58333333 7:0.34027778 8:0.83333333 9:0 10:0.88333333 
1 0:0 1:1 2:0 3:6.993 4:0.001 5:0.66666667 6:0 7:0 8:0.96666667 9:0 10:0.96666667 
1 0:1 1:1 2:0.06 3:0.392 4:0 5:1 6:0 7:0 8:0.77777778 9:0 10:0.84444444 
1 0:1 1:1 2:0.54 3:0 4:0.001 5:0.88333333 6:0 7:0 8:0.78 9:0 10:0.8432 
1 0:1 1:1 2:0.12 3:0 4:0.005 5:0.67604938 6:0.58333333 7:0.34027778 8:0.80041667 9:0 10:0.84279167 
0.6029129663042506 0:1 1:1 2:13.56 3:0.219 4:0 5:1 6:0 7:0 8:0.86666667 9:0 10:0.90666667 
1 0:1 1:1 2:0.36 3:0 4:0.001 5:0.66666667 6:0 7:0 8:0.8 9:0 10:0.83 
1 0:1 1:1 2:0 3:0.037 4:0 5:1 6:0.61111111 7:0.37345679 8:0.66666667 9:2 10:0.83 
1 0:1 1:1 2:0 3:0 4:0 5:1 6:0.61587302 7:0.37929957 8:0.66666667 9:2 10:0.83 
0.8574817517110875 0:1 1:1 2:0 3:0.038 4:0 5:1 6:0.71825397 7:0.51588876 8:0.66666667 9:2 10:0.83 
1 0:1 1:1 2:0.06 3:0.032 4:0 5:1 6:0.71825397 7:0.51588876 8:0.66666667 9:2 10:0.83 
1 0:1 1:1 2:0.06 3:0.306 4:0 5:1 6:0 7:0 8:0.77777778 9:0 10:0.82444444 
1 0:1 1:1 2:0.06 3:0.312 4:0 5:1 6:0 7:0 8:0.78666667 9:0 10:0.81866667 
1 0:1 1:1 2:0 3:0.046 4:0.005 5:0.66666667 6:0.76495726 7:0.58515962 8:0.78666667 9:2 10:0.81866667 
1 0:1 1:1 2:0 3:0.295 4:0 5:1 6:0 7:0 8:0.81333333 9:0 10:0.81333333 
1 0:1 1:1 2:0.06 3:0.355 4:0.001 5:0.79 6:0.58333333 7:0.34027778 8:0.81333333 9:0 10:0.81333333 
1 0:1 1:1 2:0 3:0.322 4:0 5:1 6:0 7:0 8:0.73333333 9:0 10:0.81333333 
1 0:1 1:1 2:0 3:0.036 4:0 5:1 6:0.6984127 7:0.4877803 8:0.66666667 9:2 10:0.81333333 
1 0:1 1:1 2:0.06 3:0.002 4:0 5:1 6:0.69444444 7:0.48225309 8:0.66666667 9:2 10:0.81333333 
1 0:1 1:1 2:0.12 3:0 4:0.001 5:0 6:0.66666667 7:0.44444444 8:0.77733333 9:2 10:0.80813333 
1 0:1 1:1 2:0 3:0.369 4:0 5:1 6:0 7:0 8:0.80088889 9:0 10:0.80088889 
1 0:1 1:1 2:0 3:0.074 4:0.001 5:0 6:0.58333333 7:0.34027778 8:0.8 9:0 10:0.8 
1 0:1 1:1 2:0.06 3:0 4:0 5:1 6:0 7:0 8:0.8 9:0 10:0.8 
1 0:1 1:1 2:0 3:0 4:0 5:1 6:0 7:0 8:0.8 9:0 10:0.8 
1 0:1 1:1 2:0 3:0.364 4:0 5:1 6:0 7:0 8:0.79733333 9:0 10:0.79733333 
1 0:1 1:1 2:0 3:0.2 4:0 5:1 6:0 7:0 8:0.79733333 9:0 10:0.79733333 
1 0:1 1:1 2:0.36 3:0.18 4:0 5:1 6:0.5 7:0.25 8:0.76 9:0 10:0.796 
0.2880432571349678 0:1 1:1 2:0.12 3:0.15 4:0 5:1 6:0.5 7:0.25 8:0.76 9:0 10:0.796 
1 0:1 1:1 2:0.12 3:0 4:1.17 5:0.93333333 6:0.93416667 7:0.87266736 8:0.86666667 9:2 10:0.86666667 
1 0:0 1:1 2:1.32 3:7 4:0 5:1 6:0 7:0 8:0.88333333 9:0 10:0.88333333 
1 0:1 1:1 2:0 3:0.197 4:0 5:1 6:0 7:0 8:0.78577778 9:0 10:0.78577778 
1 0:1 1:1 2:0 3:0 4:0 5:1 6:0.58333333 7:0.34027778 8:0.72222222 9:0 10:0.78055556 
1 0:1 1:1 2:14.4 3:0.348 4:0 5:1 6:0 7:0 8:0.78666667 9:0 10:0.85066667 
1 0:1 1:1 2:3.72 3:0 4:0 5:1 6:0 7:0 8:0.76 9:0 10:0.796 
1 0:1 1:1 2:0.06 3:0.004 4:0 5:1 6:0 7:0 8:0.77777778 9:0 10:0.77777778 
1 0:1 1:1 2:0 3:0 4:0 5:1 6:0 7:0 8:0.77777778 9:0 10:0.77777778 
1 0:1 1:1 2:25.14 3:0.263 4:0 5:1 6:0.5 7:0.25 8:0.90666667 9:0 10:0.90666667 
1 0:1 1:1 2:0.06 3:0.001 4:0 5:1 6:0.9 7:0.81 8:0.66666667 9:2 10:0.77333333 
1 0:1 1:1 2:0 3:0 4:0 5:1 6:0 7:0 8:0.73333333 9:0 10:0.77333333 
1 0:1 1:1 2:0 3:0.037 4:0 5:1 6:0.81547619 7:0.66500142 8:0.66666667 9:2 10:0.77333333 
1 0:1 1:1 2:0 3:0.255 4:0 5:1 6:0 7:0 8:0.73333333 9:0 10:0.77333333 
1 0:1 1:1 2:0 3:0 4:0 5:1 6:0.58333333 7:0.34027778 8:0.66666667 9:0 10:0.76666667 
1 0:0 1:1 2:0.18 3:6.993 4:0 5:1 6:0.5 7:0.25 8:0.85 9:0 10:0.85 
1 0:1 1:1 2:0.12 3:0 4:0 5:1 6:0.81349206 7:0.66176934 8:0.72108333 9:2 10:0.7635 
1 0:1 1:1 2:0 3:0 4:0 5:1 6:0 7:0 8:0.76 9:0 10:0.76 
1 0:1 1:1 2:0.06 3:0 4:0 5:1 6:0 7:0 8:0.76 9:0 10:0.76 
1 0:1 1:1 2:0 3:0 4:0 5:1 6:0.79111111 7:0.62585679 8:0.5 9:2 10:0.76 
1 0:1 1:1 2:0 3:0.188 4:0.805 5:0.61111111 6:0 7:0 8:0.88333333 9:0 10:0.88333333 
1 0:1 1:1 2:0 3:0 4:0.5 5:0.61111111 6:0 7:0 8:0.88333333 9:0 10:0.88333333 
1 0:1 1:1 2:0.06 3:0.382 4:0.119 5:0.61111111 6:0 7:0 8:0.83333333 9:0 10:0.88333333 
0.01044614577587915 0:1 1:1 2:0.06 3:0 4:0.128 5:0.40740741 6:0.85 7:0.7225 8:0.83333333 9:2 10:0.88333333 
1 0:1 1:1 2:19.98 3:0.16 4:0 5:1 6:0 7:0 8:0.84844444 9:0 10:0.84844444 
1 0:1 1:1 2:0 3:0 4:0 5:1 6:0.89411765 7:0.79944637 8:0.66666667 9:2 10:0.745 
1 0:1 1:1 2:0.06 3:0.032 4:0 5:1 6:0.76495726 7:0.58515962 8:0.66666667 9:2 10:0.745 
1 0:1 1:1 2:0.06 3:0 4:0 5:1 6:0.88 7:0.7744 8:0.66666667 9:2 10:0.745 
1 0:1 1:1 2:0.12 3:0 4:0 5:1 6:0 7:0 8:0.66666667 9:0 10:0.745 
1 0:1 1:1 2:0 3:0 4:0 5:1 6:0.73737374 7:0.54372003 8:0.66666667 9:2 10:0.745 
1 0:1 1:1 2:0 3:0.313 4:0 5:1 6:0 7:0 8:0.66666667 9:0 10:0.745 
1 0:1 1:1 2:0.06 3:0.377 4:0 5:1 6:0 7:0 8:0.736 9:0 10:0.736 
1 0:1 1:1 2:0.06 3:0.038 4:0 5:1 6:0.66666667 7:0.44444444 8:0.73333333 9:2 10:0.73333333 
1 0:1 1:1 2:0.06 3:0.313 4:0 5:1 6:0 7:0 8:0.73333333 9:0 10:0.73333333 
1 0:1 1:1 2:0 3:0.221 4:0 5:1 6:0 7:0 8:0.63333333 9:0 10:0.72333333 
1 0:1 1:1 2:0 3:0 4:0 5:1 6:0.83991597 7:0.70545883 8:0.72222222 9:2 10:0.72222222 
1 0:1 1:1 2:0 3:0 4:0 5:1 6:0 7:0 8:0.66666667 9:0 10:0.71666667 
1 0:1 1:1 2:0 3:0 4:0.003 5:0 6:0 7:0 8:0.90666667 9:0 10:0.90666667 
1 0:1 1:1 2:0.12 3:0 4:0.004 5:0.62222222 6:0 7:0 8:0.83333333 9:0 10:0.88333333 
1 0:1 1:1 2:0 3:0 4:0 5:1 6:0.89285714 7:0.79719388 8:0.63950617 9:2 10:0.69432099 
1 0:1 1:1 2:0 3:0.048 4:0 5:1 6:0.88166667 7:0.77733611 8:0.64 9:2 10:0.688 
1 0:1 1:1 2:0.24 3:0 4:0.009 5:0.51555556 6:0.58333333 7:0.34027778 8:0.73666667 9:0 10:0.77066667 
1 0:1 1:1 2:0 3:0 4:0 5:1 6:0.65384615 7:0.42751479 8:0.66666667 9:2 10:0.66666667 
1 0:1 1:1 2:0 3:0 4:0 5:1 6:0.83333333 7:0.69444444 8:0.66666667 9:2 10:0.66666667 
1 0:1 1:1 2:0 3:0 4:0 5:1 6:0.84126984 7:0.70773495 8:0.66666667 9:2 10:0.66666667 
1 0:1 1:1 2:0 3:0 4:0 5:1 6:0.9475 7:0.89775625 8:0.66666667 9:2 10:0.66666667 
1 0:1 1:1 2:0 3:0.259 4:0 5:1 6:0.58333333 7:0.34027778 8:0.66666667 9:0 10:0.66666667 
1 0:1 1:1 2:0 3:0.001 4:0 5:1 6:0.915 7:0.837225 8:0.66666667 9:2 10:0.66666667 
1 0:1 1:1 2:0 3:0 4:0 5:1 6:0.66666667 7:0.44444444 8:0.66666667 9:0 10:0.66666667 
1 0:1 1:1 2:0.06 3:0.04 4:0 5:1 6:1 7:1 8:0.66666667 9:2 10:0.66666667 
1 0:1 1:1 2:0 3:0.078 4:0 5:1 6:0.58333333 7:0.34027778 8:0.66666667 9:0 10:0.66666667 
1 0:1 1:1 2:0 3:0 4:0.183 5:0.91111111 6:0.73611111 7:0.54185957 8:0.78333333 9:2 10:0.78333333 
1 0:1 1:1 2:0.06 3:0 4:0 5:1 6:0.88809524 7:0.78871315 8:0.5 9:2 10:0.65 
1 0:1 1:1 2:0 3:0 4:0 5:1 6:0.95 7:0.9025 8:0.6 9:2 10:0.64 
1 0:1 1:1 2:0 3:0 4:0.004 5:0 6:0 7:0 8:0.94666667 9:0 10:0.94666667 
1 0:1 1:1 2:47.46 3:0.318 4:0 5:1 6:0.5 7:0.25 8:0.85 9:0 10:0.85 
1 0:1 1:1 2:0.12 3:0.041 4:1.106 5:0.94166667 6:0.66155556 7:0.52850592 8:0.86666667 9:2 10:0.90666667 
1 0:1 1:1 2:0 3:0.05 4:0.01 5:0.86 6:0.8974359 7:0.80539119 8:0.66666667 9:2 10:0.76666667 
1 0:1 1:1 2:0.12 3:0.042 4:0.112 5:0.7491358 6:0.73296703 7:0.53724067 8:0.66666667 9:2 10:0.66666667 
1 0:1 1:1 2:0 3:0.181 4:0.934 5:0.52777778 6:0.66666667 7:0.44444444 8:0.86666667 9:0 10:0.86666667 
1 0:1 1:1 2:0 3:0.35 4:0.006 5:0 6:0 7:0 8:0.94 9:0 10:0.94 
1 0:1 1:1 2:0 3:0 4:0.046 5:0.48641975 6:0.78839286 7:0.6215633 8:0.78333333 9:2 10:0.78333333 
1 0:0 1:1 2:0 3:7 4:0 5:1 6:0.82857143 7:0.68653061 8:0.85 9:2 10:0.85 
1 0:1 1:1 2:0 3:0.001 4:0.02 5:0.8 6:0.86875 7:0.75472656 8:0.73333333 9:2 10:0.73333333 
1 0:1 1:1 2:0.06 3:0 4:0.006 5:0 6:0.58333333 7:0.34027778 8:0.93333333 9:0 10:0.93333333 
1 0:1 1:1 2:0.06 3:0 4:0.008 5:0 6:0 7:0 8:0.85 9:0 10:0.895 
-1 0:1 1:1 2:0 3:0.28 4:0 5:1 6:0.58333333 7:0.34027778 8:0.68888889 9:0 10:0.79377778 
-1 0:1 1:1 2:0 3:0.279 4:0.001 5:0.79 6:0 7:0 8:0.66666667 9:0 10:0.76 
-1 0:1 1:1 2:0.06 3:0.4 4:0 5:1 6:0 7:0 8:0.73 9:0 10:0.73 
-1 0:1 1:1 2:18.42 3:0.15 4:0.001 5:0.87555556 6:0 7:0 8:0.81333333 9:0 10:0.81333333 
-1 0:1 1:1 2:0 3:0.286 4:0 5:1 6:0 7:0 8:0.66666667 9:0 10:0.7 
-1 0:1 1:1 2:0.06 3:0.225 4:0 5:1 6:0.66666667 7:0.44444444 8:0.66666667 9:0 10:0.7 
-1 0:1 1:1 2:0.84 3:0.455 4:0.002 5:0.66666667 6:0.58333333 7:0.34027778 8:0.69444444 9:0 10:0.69444444 
-1 0:1 1:1 2:0.06 3:0.393 4:0 5:1 6:0 7:0 8:0.69444444 9:0 10:0.69444444 
-1 0:1 1:1 2:0 3:0.372 4:0.005 5:0.82222222 6:0 7:0 8:0.69444444 9:0 10:0.69444444 
-1 0:1 1:1 2:0 3:0.411 4:0 5:1 6:0 7:0 8:0.69444444 9:0 10:0.69444444 
-1 0:1 1:1 2:0.06 3:0 4:0 5:1 6:0.58333333 7:0.34027778 8:0.69444444 9:0 10:0.69444444 
-1 0:1 1:1 2:0.06 3:0.304 4:0 5:1 6:0.66666667 7:0.44444444 8:0.69444444 9:0 10:0.69444444 
-1 0:1 1:1 2:0.06 3:0.327 4:0 5:1 6:0 7:0 8:0.69444444 9:0 10:0.69444444 
-1 0:1 1:1 2:0 3:0 4:0 5:1 6:0 7:0 8:0.69444444 9:0 10:0.69444444 
-1 0:1 1:1 2:0 3:0 4:0 5:1 6:0 7:0 8:0.63333333 9:0 10:0.67833333 
-1 0:1 1:1 2:0 3:0 4:0.001 5:0.79 6:0.58333333 7:0.34027778 8:0.63333333 9:0 10:0.67833333 
-1 0:0 1:1 2:0.12 3:7.444 4:0.173 5:0.50246914 6:0 7:0 8:0.84 9:0 10:0.873 
-1 0:1 1:1 2:0.06 3:0 4:0 5:1 6:0 7:0 8:0.69444444 9:0 10:0.66666667 
-1 0:1 1:1 2:0 3:0 4:0 5:1 6:0 7:0 8:0.69444444 9:0 10:0.66666667 
-1 0:1 1:1 2:0.06 3:0.428 4:0 5:1 6:0 7:0 8:0.69444444 9:0 10:0.66666667 
-1 0:1 1:1 2:0 3:0 4:0 5:1 6:0.83333333 7:0.69444444 8:0.66666667 9:0 10:0.66666667 
-1 0:1 1:1 2:0 3:0 4:0.001 5:0.87555556 6:0.5 7:0.25 8:0.69444444 9:0 10:0.66666667 
-1 0:1 1:1 2:0.06 3:0.215 4:0 5:1 6:0 7:0 8:0.69444444 9:0 10:0.66666667 
-1 0:1 1:1 2:0.06 3:0.001 4:0 5:1 6:0.89333333 7:0.79804444 8:0.66666667 9:2 10:0.66666667 
-1 0:1 1:1 2:0 3:0 4:0 5:1 6:0 7:0 8:0.69444444 9:0 10:0.66666667 
-1 0:1 1:1 2:0.06 3:0 4:0 5:1 6:0.58333333 7:0.34027778 8:0.69444444 9:0 10:0.66666667 
-1 0:1 1:1 2:0 3:0.343 4:0 5:1 6:0.58333333 7:0.34027778 8:0.69444444 9:0 10:0.66666667 
-1 0:1 1:1 2:0.06 3:0.001 4:0 5:1 6:0.58333333 7:0.34027778 8:0.66666667 9:0 10:0.66666667 
-1 0:1 1:1 2:0 3:0.382 4:0 5:1 6:0 7:0 8:0.69444444 9:0 10:0.66666667 
-1 0:1 1:1 2:0.06 3:0.492 4:0 5:1 6:0 7:0 8:0.69444444 9:0 10:0.66666667 
-1 0:1 1:1 2:0 3:0 4:0 5:1 6:0 7:0 8:0.6205 9:0 10:0.65335 
-1 0:1 1:1 2:0.06 3:0.045 4:0 5:1 6:0.92857143 7:0.8622449 8:0.61111111 9:2 10:0.65277778 
-1 0:1 1:1 2:0 3:0 4:0 5:1 6:0.71733822 7:0.51457412 8:0.61111111 9:2 10:0.65277778 
-1 0:1 1:1 2:0 3:0 4:0 5:1 6:0.58333333 7:0.34027778 8:0.64755556 9:0 10:0.64755556 
-1 0:1 1:1 2:0.06 3:0.054 4:0 5:1 6:0.8 7:0.64 8:0.63333333 9:2 10:0.63333333 
-1 0:1 1:1 2:0 3:0 4:0 5:1 6:0.87142857 7:0.75938776 8:0.63333333 9:2 10:0.63333333 
-1 0:1 1:1 2:0 3:0 4:0 5:1 6:0.79487179 7:0.63182117 8:0.63333333 9:2 10:0.63333333 
-1 0:1 1:1 2:0 3:0.005 4:0 5:1 6:0.83012821 7:0.68911284 8:0.63333333 9:2 10:0.63333333 
-1 0:1 1:1 2:0.12 3:0 4:0 5:1 6:0.85 7:0.7225 8:0.63333333 9:2 10:0.63333333 
-1 0:1 1:1 2:0 3:0.318 4:0 5:1 6:0.58333333 7:0.34027778 8:0.57777778 9:0 10:0.61444444 
-1 0:1 1:1 2:0.06 3:0.032 4:0 5:1 6:0.88333333 7:0.78027778 8:0.5 9:2 10:0.61111111 
-1 0:1 1:1 2:0 3:0 4:0 5:1 6:0.5 7:0.25 8:0.61111111 9:0 10:0.61111111 
-0.05614613222563435 0:1 1:1 2:0.06 3:0 4:0 5:1 6:0.85454545 7:0.73024793 8:0.5 9:2 10:0.6 
-1 0:1 1:1 2:10.32 3:0.465 4:0.16 5:0.5612037 6:0.58333333 7:0.34027778 8:0.72379259 9:0 10:0.74501037 
-1 0:1 1:1 2:0.06 3:0.35 4:0.001 5:0.82222222 6:0.5 7:0.25 8:0.69444444 9:0 10:0.66666667 
-0.08825814287549946 0:0 1:1 2:11.58 3:6.994 4:0.044 5:0.51555556 6:0.825 7:0.680625 8:0.81333333 9:2 10:0.81333333 
-1 0:1 1:1 2:0.12 3:0 4:0.09 5:0.86 6:0.7172619 7:0.51446464 8:0.63333333 9:2 10:0.67833333 
-1 0:1 1:1 2:0.06 3:0.423 4:0.09 5:0.86 6:0 7:0 8:0.66666667 9:0 10:0.66666667 
-1 0:1 1:1 2:0.06 3:0.048 4:0.01 5:0.86 6:0.72698413 7:0.52850592 8:0.66666667 9:2 10:0.66666667 
-1 0:1 1:1 2:0.12 3:0.346 4:0 5:1 6:0 7:0 8:0.90666667 9:0 10:0.90666667 
-1 0:1 1:1 2:0.06 3:0.493 4:0.05 5:0.8 6:0 7:0 8:0.69444444 9:0 10:0.69444444 
-1 0:1 1:1 2:0.9 3:0.455 4:0.006 5:0 6:0.58333333 7:0.34027778 8:0.73 9:0 10:0.796 
-1 0:0 1:1 2:0.78 3:7.072 4:0.014 5:0.49155556 6:0 7:0 8:0.86666667 9:0 10:0.86666667 
-1 0:1 1:1 2:0 3:0 4:0 5:1 6:0 7:0 8:0.63333333 9:0 10:0.67833333 
-1 0:1 1:1 2:0.3 3:0 4:0 5:1 6:0.80714286 7:0.65147959 8:0.63333333 9:2 10:0.67833333 
-1 0:1 1:1 2:0 3:0 4:0.912 5:0.94166667 6:0.65058751 7:0.72913856 8:0.84833333 9:2 10:0.84833333 
-1 0:1 1:1 2:0.12 3:0.053 4:0.061 5:0.45679012 6:0.83589744 7:0.69872452 8:0.66666667 9:2 10:0.66666667 
-1 0:1 1:1 2:7.98 3:0.35 4:0.134 5:0.57333333 6:0 7:0 8:0.91111111 9:0 10:0.91111111 
-1 0:1 1:1 2:0 3:0 4:0 5:1 6:0.62177812 7:0.5719935 8:0.77777778 9:2 10:0.84444444 
-1 0:1 1:1 2:0 3:0.362 4:0 5:1 6:0 7:0 8:0.63333333 9:0 10:0.63333333 
-1 0:1 1:1 2:0.12 3:0.039 4:0.002 5:0.88333333 6:0.80555556 7:0.6387486 8:0.66666667 9:2 10:0.83 
-1 0:1 1:1 2:0.3 3:0.343 4:0.034 5:0.55555556 6:0 7:0 8:0.78333333 9:0 10:0.82833333 
-1 0:1 1:1 2:0.06 3:0.2 4:0 5:1 6:0.25 7:0.25 8:0.82222222 9:0 10:0.82222222 
-1 0:1 1:1 2:0 3:0 4:0 5:1 6:0.61587302 7:0.37929957 8:0.82222222 9:2 10:0.82222222 
-1 0:1 1:1 2:0 3:0.001 4:0.01 5:0.90666667 6:0.85303188 7:0.88164783 8:0.89333333 9:2 10:0.92533333 
-1 0:1 1:1 2:0 3:0.031 4:0 5:1 6:0.58461538 7:0.44444444 8:0.805 9:2 10:0.805 
-0.9776197362166664 0:1 1:0 2:3.78 3:0.184 4:0.028 5:0.55555556 6:0.5 7:0.25 8:0.76 9:1 10:0.796 
-1 0:1 1:1 2:0 3:0 4:0.125 5:0.69444444 6:0.72204082 7:0.68653061 8:0.925 9:2 10:0.925 
-0.4037848676352576 0:0 1:1 2:1.86 3:7.002 4:0.143 5:0.42962963 6:0.85714286 7:0.73469388 8:0.75 9:2 10:0.8025 
-1 0:1 1:1 2:5.16 3:0.012 4:0.011 5:0.54814815 6:0.63333333 7:0.40111111 8:0.70488889 9:2 10:0.72915556 
-1 0:1 1:1 2:0.12 3:0 4:0.204 5:0.61111111 6:0 7:0 8:0.775 9:0 10:0.8125 
-1 0:1 1:1 2:3.48 3:0.009 4:0.026 5:0.43888889 6:0.76525714 7:0.63543673 8:0.73666667 9:2 10:0.77566667 
-1 0:1 1:1 2:0 3:0 4:0.01 5:0.90666667 6:0.66106443 7:0.43700618 8:0.77777778 9:2 10:0.84444444 
-1 0:1 1:1 2:0.72 3:0.001 4:0.055 5:0.43209877 6:0.825 7:0.680625 8:0.66666667 9:2 10:0.66666667 
-0.3974237873922465 0:1 1:1 2:1.14 3:0.02 4:0.154 5:0.57098765 6:0 7:0 8:0.69783333 9:0 10:0.72050556 
-1 0:1 1:1 2:0.84 3:0.052 4:0.009 5:0.54479012 6:0.67838542 7:0.66015625 8:0.75 9:2 10:0.75 
-1 0:1 1:1 2:0.06 3:0 4:0 5:1 6:0.25 7:0.25 8:0.69444444 9:0 10:0.69444444 
-1 0:1 1:1 2:0.18 3:0.043 4:0 5:1 6:0.42920194 7:0.24369111 8:0.68888889 9:2 10:0.68888889 
-1 0:1 1:1 2:0 3:0 4:0 5:1 6:0.67831054 7:0.72194455 8:0.55555556 9:2 10:0.62222222 
-1 0:1 1:1 2:0 3:0.259 4:0 5:1 6:0 7:0 8:0.63333333 9:0 10:0.67833333 
-1 0:1 1:1 2:0 3:0.007 4:0.152 5:0.57098765 6:0 7:0 8:0.69783333 9:0 10:0.72050556 
-1 0:1 1:1 2:0.06 3:0.035 4:0.002 5:0.88333333 6:0.70970899 7:0.58656148 8:0.66666667 9:2 10:0.66666667 
-1 0:1 1:1 2:0.18 3:0.005 4:0.103 5:0.40740741 6:0.75400895 7:0.69004227 8:0.66666667 9:2 10:0.77333333 
-1 0:1 1:1 2:0 3:0.042 4:0.02 5:0.8 6:0.59191684 7:0.6411727 8:0.96 9:2 10:0.96 
-1 0:0 1:1 2:1.14 3:7.019 4:0.059 5:0.62222222 6:0.63964685 7:0.53028271 8:0.72108333 9:2 10:0.78745083 
-1 0:1 1:1 2:29.94 3:0.175 4:0.479 5:0.37345679 6:0.25 7:0.25 8:0.96 9:0 10:0.96 
-1 0:1 1:1 2:2.04 3:0.315 4:0.173 5:0.33950617 6:0 7:0 8:0.90666667 9:0 10:0.90666667 
-1 0:1 1:1 2:1.2 3:0.028 4:0.02 5:0.52666667 6:0.76488095 7:0.58504287 8:0.63333333 9:2 10:0.67833333 
-1 0:1 1:1 2:3.66 3:0.295 4:0.072 5:0.53333333 6:0 7:0 8:0.74592593 9:0 10:0.74592593 
-1 0:1 1:1 2:9.48 3:0.184 4:0.324 5:0.43209877 6:0.5 7:0.25 8:0.78666667 9:0 10:0.78666667 
-1 0:1 1:1 2:0.36 3:0.493 4:0.219 5:0.33950617 6:0 7:0 8:0.66666667 9:0 10:0.83666667 
-1 0:1 1:1 2:1.62 3:0 4:0.291 5:0.50617284 6:0 7:0 8:0.73 9:0 10:0.763 
-1 0:1 1:1 2:0.06 3:0.345 4:0.008 5:0.62222222 6:0.38888889 7:0.34027778 8:0.66186667 9:0 10:0.72170667 
-1 0:1 1:1 2:0.24 3:0.155 4:0.175 5:0.795 6:0 7:0 8:0.82666667 9:0 10:0.82666667 
-1 0:1 1:1 2:0.78 3:0.038 4:0.006 5:0 6:0.81666667 7:0.66694444 8:0.75 9:2 10:0.75 
-1 0:1 1:1 2:0 3:0.003 4:1.193 5:0.45833333 6:0.6984127 7:0.4877803 8:0.79804444 9:2 10:0.79804444 
-0.8356514545808785 0:1 1:1 2:14.58 3:0.017 4:0.344 5:0.33950617 6:0.80714286 7:0.65147959 8:0.78911111 9:2 10:0.78911111 
-1 0:1 1:1 2:2.22 3:0.049 4:0.21 5:0.62222222 6:0.69304267 7:0.54478458 8:0.71644444 9:2 10:0.71644444 
-1 0:1 1:1 2:0.72 3:0 4:0.009 5:0 6:0 7:0 8:0.86666667 9:0 10:0.86666667 
